svm_type c_svc
kernel_type linear
nr_class 2
total_sv 1321
rho -1.1599768451377064
label 0 1
probA -2.2299828721263384
probB -0.7843577996235238
nr_sv 1043 278
SV
0.003107996199144428 4:1.0 35:2.0 275:1.0 276:1.0 277:1.0 278:1.0 279:1.0 280:1.0 281:1.0 282:1.0 283:1.0 284:2.0 285:2.0 286:24.0 287:2.0 288:1.0 289:2.0 290:1.0 291:1.0 292:2.0 293:1.0 294:1.0 295:1.0 296:1.0 297:1.0 298:1.0 299:1.0 300:1.0 301:1.0 302:1.0 303:1.0 304:1.0 305:1.0 306:1.0 307:1.0 308:1.0 309:1.0 310:1.0 311:1.0 312:1.0 313:1.0 314:1.0 315:1.0 316:1.0 317:1.0 318:1.0 319:1.0 320:1.0 321:1.0 322:1.0 323:23.0 324:1.0 325:1.0 326:1.0 327:1.0 328:1.0 329:1.0 330:1.0 331:1.0 332:1.0 333:1.0 
0.010812697661009318 4:3.0 32:2.0 35:1.0 172:12.0 173:1.0 194:1.0 244:10.0 245:1.0 246:1.0 670:1.0 671:1.0 672:1.0 673:1.0 674:2.0 675:1.0 676:1.0 677:1.0 678:1.0 679:1.0 680:1.0 681:1.0 682:1.0 683:1.0 684:1.0 685:1.0 686:1.0 687:1.0 688:1.0 689:1.0 690:1.0 691:1.0 692:1.0 693:1.0 694:1.0 695:1.0 696:1.0 697:1.0 698:1.0 699:1.0 700:1.0 701:1.0 
0.004525053602615296 4:1.0 35:2.0 184:1.0 702:1.0 703:1.0 704:2.0 705:3.0 706:2.0 707:1.0 708:2.0 709:1.0 710:2.0 711:1.0 712:4.0 713:2.0 714:1.0 715:1.0 716:1.0 717:1.0 718:1.0 719:1.0 720:1.0 721:1.0 722:1.0 723:1.0 724:1.0 725:1.0 726:1.0 727:1.0 728:1.0 729:1.0 730:1.0 731:1.0 732:1.0 733:1.0 734:1.0 735:1.0 736:1.0 737:1.0 738:2.0 739:1.0 740:1.0 741:1.0 742:1.0 743:1.0 744:1.0 745:1.0 746:1.0 747:1.0 748:1.0 749:3.0 750:1.0 751:1.0 
0.0036687957767644933 4:2.0 15:2.0 35:1.0 175:12.0 176:3.0 196:1.0 250:11.0 251:1.0 252:2.0 289:2.0 290:1.0 301:1.0 329:1.0 437:1.0 438:3.0 439:1.0 440:1.0 454:1.0 484:2.0 485:1.0 503:1.0 754:3.0 763:1.0 787:2.0 819:2.0 820:3.0 821:2.0 822:1.0 823:1.0 824:1.0 825:1.0 826:1.0 827:1.0 828:1.0 829:1.0 830:1.0 831:1.0 832:1.0 833:1.0 834:1.0 835:1.0 836:1.0 837:1.0 838:1.0 839:1.0 840:1.0 841:2.0 842:1.0 843:1.0 844:1.0 845:1.0 846:1.0 
6.314054659976639E-4 4:1.0 289:1.0 847:1.0 848:1.0 849:1.0 850:1.0 851:1.0 852:1.0 853:1.0 854:1.0 855:1.0 856:1.0 
0.0025089324173427708 4:7.0 15:1.0 16:1.0 18:2.0 35:4.0 39:1.0 82:1.0 103:3.0 117:1.0 149:2.0 166:1.0 175:12.0 176:3.0 184:1.0 196:1.0 202:1.0 250:10.0 251:1.0 252:2.0 253:1.0 341:1.0 353:1.0 432:1.0 447:6.0 448:1.0 506:1.0 820:3.0 841:2.0 979:1.0 980:1.0 981:1.0 982:2.0 983:1.0 984:6.0 985:1.0 986:1.0 987:1.0 988:1.0 989:1.0 990:1.0 991:1.0 992:7.0 993:2.0 994:4.0 995:1.0 996:2.0 997:2.0 998:1.0 999:1.0 1000:1.0 1001:1.0 1002:1.0 1003:1.0 1004:1.0 1005:1.0 1006:1.0 1007:1.0 1008:1.0 1009:1.0 1010:1.0 1011:1.0 1012:1.0 1013:1.0 1014:1.0 1015:1.0 1016:1.0 1017:1.0 1018:1.0 1019:1.0 1020:1.0 1021:1.0 1022:1.0 1023:1.0 1024:1.0 1025:1.0 1026:1.0 1027:1.0 1028:1.0 1029:1.0 1030:1.0 1031:1.0 1032:1.0 1033:1.0 1034:1.0 1035:1.0 1036:1.0 1037:1.0 1038:1.0 1039:1.0 1040:1.0 1041:1.0 1042:1.0 1043:1.0 1044:1.0 1045:1.0 1046:1.0 1047:1.0 1048:1.0 1049:1.0 1050:1.0 1051:1.0 1052:1.0 1053:1.0 1054:1.0 1055:1.0 1056:1.0 1057:1.0 1058:1.0 1059:1.0 1060:1.0 1061:1.0 1062:1.0 1063:1.0 1064:1.0 1065:1.0 1066:5.0 1067:1.0 1068:1.0 1069:1.0 1070:1.0 1071:1.0 1072:1.0 1073:1.0 1074:1.0 1075:1.0 1076:6.0 1077:1.0 1078:1.0 1079:1.0 1080:1.0 1081:1.0 1082:1.0 1083:2.0 1084:1.0 1085:1.0 1086:1.0 1087:1.0 1088:1.0 1089:1.0 1090:1.0 1091:1.0 1092:5.0 1093:1.0 1094:1.0 1095:1.0 1096:1.0 1097:1.0 
0.0011480451788927841 4:4.0 10:1.0 35:2.0 172:12.0 173:25.0 244:10.0 245:2.0 246:2.0 652:2.0 653:2.0 655:1.0 659:1.0 803:1.0 814:22.0 981:1.0 989:2.0 991:1.0 992:7.0 998:1.0 1011:1.0 1041:1.0 1075:1.0 1076:5.0 1098:1.0 1099:3.0 1100:1.0 1101:2.0 1102:7.0 1103:10.0 1104:1.0 1105:1.0 1106:2.0 1107:2.0 1108:2.0 1109:2.0 1110:1.0 1111:1.0 1112:1.0 1113:1.0 1114:1.0 1115:1.0 1116:1.0 1117:1.0 1118:1.0 1119:1.0 1120:1.0 1121:1.0 1122:1.0 1123:1.0 1124:1.0 1125:1.0 1126:1.0 1127:1.0 1128:1.0 1129:1.0 1130:1.0 1131:1.0 1132:1.0 1133:1.0 1134:1.0 1135:1.0 1136:1.0 1137:1.0 1138:1.0 1139:1.0 1140:1.0 1141:1.0 1142:1.0 1143:1.0 1144:1.0 1145:1.0 1146:1.0 1147:1.0 1148:1.0 1149:1.0 1150:1.0 1151:1.0 1152:1.0 1153:1.0 1154:1.0 1155:6.0 1156:1.0 1157:9.0 1158:1.0 1159:1.0 1160:1.0 1161:1.0 1162:1.0 1163:1.0 1164:1.0 1165:1.0 1166:1.0 1167:1.0 1168:1.0 1169:1.0 1170:1.0 1171:1.0 1172:1.0 1173:1.0 1174:1.0 1175:1.0 
2.9059881792359326E-4 4:6.0 35:1.0 111:1.0 175:12.0 176:3.0 196:1.0 250:10.0 251:1.0 252:1.0 253:2.0 276:1.0 284:2.0 297:1.0 307:1.0 319:1.0 398:1.0 404:3.0 410:1.0 418:1.0 431:2.0 652:2.0 653:1.0 659:1.0 660:1.0 819:4.0 822:2.0 833:2.0 838:2.0 991:1.0 992:7.0 1011:1.0 1041:1.0 1076:6.0 1105:5.0 1160:1.0 1325:1.0 1326:1.0 1327:1.0 1328:2.0 1329:2.0 1330:1.0 1331:1.0 1332:1.0 1333:1.0 1334:1.0 1335:2.0 1336:1.0 1337:1.0 1338:1.0 1339:1.0 1340:1.0 1341:1.0 1342:1.0 1343:1.0 1344:1.0 1345:1.0 1346:1.0 1347:1.0 1348:1.0 1349:1.0 1350:1.0 1351:1.0 1352:1.0 1353:1.0 1354:1.0 1355:1.0 1356:1.0 1357:1.0 1358:1.0 1359:1.0 1360:1.0 1361:1.0 1362:1.0 1363:1.0 1364:1.0 1365:1.0 1366:1.0 1367:1.0 1368:1.0 1369:1.0 1370:1.0 1371:1.0 1372:1.0 1373:1.0 1374:1.0 1375:1.0 1376:1.0 1377:1.0 1378:1.0 1379:1.0 1380:1.0 1381:1.0 1382:1.0 1383:1.0 1384:1.0 1385:1.0 1386:1.0 1387:1.0 1388:1.0 1389:1.0 1390:1.0 1391:4.0 1392:1.0 1393:1.0 1394:1.0 1395:1.0 
0.00944675171424648 4:3.0 15:2.0 21:12.0 22:12.0 23:1.0 32:1.0 35:1.0 42:1.0 87:10.0 88:2.0 89:9.0 90:1.0 91:1.0 92:1.0 107:1.0 175:12.0 176:3.0 196:1.0 250:9.0 251:2.0 252:1.0 253:2.0 432:1.0 438:4.0 484:3.0 517:3.0 518:2.0 519:2.0 566:1.0 567:1.0 820:1.0 821:2.0 824:1.0 833:1.0 844:1.0 845:1.0 846:1.0 875:3.0 893:1.0 928:1.0 972:2.0 1239:1.0 1326:1.0 1328:2.0 1331:1.0 1340:1.0 1343:1.0 1373:1.0 1610:2.0 1611:2.0 1612:3.0 1613:12.0 1614:12.0 1615:1.0 1616:6.0 1617:2.0 1618:1.0 1619:1.0 1620:1.0 1621:1.0 1622:1.0 1623:1.0 1624:1.0 1625:1.0 1626:1.0 1627:1.0 1628:1.0 1629:1.0 1630:1.0 1631:1.0 1632:1.0 1633:1.0 1634:1.0 1635:1.0 1636:1.0 1637:1.0 1638:1.0 1639:1.0 1640:1.0 1641:1.0 1642:1.0 1643:1.0 1644:1.0 1645:1.0 1646:1.0 1647:1.0 1648:1.0 1649:1.0 1650:1.0 1651:1.0 1652:2.0 1653:1.0 1654:9.0 1655:1.0 1656:1.0 1657:1.0 1658:10.0 1659:1.0 1660:1.0 1661:1.0 1662:1.0 1663:1.0 1664:1.0 1665:1.0 1666:5.0 1667:1.0 1668:1.0 1669:1.0 1670:1.0 1671:1.0 1672:1.0 
0.004089904061881672 4:1.0 109:2.0 122:1.0 158:1.0 651:2.0 652:2.0 653:2.0 655:1.0 657:1.0 658:1.0 659:2.0 660:1.0 1098:1.0 1111:1.0 1331:1.0 1471:1.0 1728:1.0 1768:1.0 1769:1.0 1770:1.0 1771:1.0 1772:1.0 1773:1.0 1774:1.0 1775:1.0 1776:1.0 1777:1.0 
0.007977809807770285 4:1.0 13:3.0 32:1.0 33:1.0 35:1.0 51:1.0 74:2.0 167:1.0 184:1.0 276:1.0 284:2.0 297:1.0 307:1.0 319:1.0 340:3.0 341:1.0 353:1.0 386:2.0 703:1.0 704:2.0 714:1.0 734:1.0 735:1.0 752:1.0 755:4.0 764:1.0 790:2.0 1791:1.0 1792:1.0 1793:1.0 1794:1.0 1795:1.0 1796:1.0 1797:1.0 1798:1.0 1799:1.0 1800:1.0 1801:1.0 1802:1.0 1803:1.0 1804:1.0 1805:1.0 1806:1.0 1807:1.0 1808:1.0 1809:1.0 1810:1.0 1811:1.0 1812:1.0 1813:1.0 1814:1.0 1815:1.0 1816:1.0 
0.00782858461266131 4:1.0 8:1.0 25:1.0 167:1.0 1874:1.0 1875:1.0 1876:5.0 1877:2.0 1878:2.0 1879:1.0 1880:1.0 1881:1.0 1882:1.0 1883:1.0 1884:1.0 1885:1.0 1886:1.0 1887:1.0 1888:1.0 1889:4.0 1890:1.0 1891:1.0 1892:1.0 1893:1.0 
3.8192251785461773E-4 4:1.0 189:1.0 1894:3.0 1895:3.0 1896:1.0 1897:2.0 1898:2.0 1899:1.0 1900:4.0 1901:1.0 1902:1.0 1903:1.0 1904:1.0 1905:1.0 1906:1.0 1907:1.0 1908:1.0 1909:1.0 1910:1.0 1911:1.0 1912:1.0 1913:1.0 1914:1.0 1915:1.0 1916:1.0 1917:1.0 1918:1.0 1919:2.0 1920:1.0 1921:2.0 1922:1.0 1923:1.0 1924:1.0 1925:1.0 1926:1.0 1927:1.0 1928:1.0 1929:3.0 1930:1.0 
0.0094954752811512 4:1.0 25:1.0 35:1.0 172:12.0 173:1.0 175:12.0 176:3.0 194:1.0 196:1.0 244:11.0 246:1.0 250:10.0 251:1.0 252:2.0 253:1.0 275:1.0 341:1.0 353:1.0 539:1.0 557:1.0 868:2.0 956:1.0 1445:2.0 1478:1.0 1898:2.0 1906:1.0 1926:1.0 2008:4.0 2009:2.0 2010:3.0 2011:1.0 2012:1.0 2013:1.0 2014:1.0 2015:3.0 2016:1.0 2017:1.0 2018:1.0 2019:1.0 2020:1.0 2021:1.0 2022:1.0 2023:1.0 2024:1.0 2025:1.0 2026:1.0 2027:1.0 2028:1.0 2029:1.0 2030:1.0 2031:1.0 2032:1.0 2033:1.0 2034:1.0 2035:1.0 2036:1.0 2037:1.0 2038:1.0 2039:1.0 2040:1.0 2041:1.0 2042:1.0 2043:1.0 2044:1.0 2045:2.0 2046:1.0 2047:1.0 2048:1.0 2049:1.0 2050:1.0 2051:1.0 2052:1.0 2053:1.0 2054:1.0 2055:1.0 2056:1.0 2057:1.0 2058:1.0 2059:1.0 2060:1.0 2061:1.0 2062:1.0 2063:2.0 2064:1.0 
4.3321819257986565E-4 4:1.0 107:1.0 175:12.0 176:3.0 196:1.0 250:10.0 251:1.0 252:1.0 253:2.0 589:1.0 600:1.0 1617:2.0 1623:1.0 1669:1.0 2175:3.0 2242:2.0 2309:3.0 2310:5.0 2311:1.0 2312:1.0 2313:1.0 2314:1.0 2315:1.0 2316:1.0 2317:1.0 2318:1.0 2319:1.0 2320:1.0 2321:1.0 2322:1.0 2323:2.0 2324:1.0 2325:1.0 2326:1.0 2327:4.0 
0.005929392641410512 4:2.0 15:1.0 35:3.0 103:3.0 117:1.0 149:2.0 167:1.0 172:24.0 173:2.0 175:12.0 176:3.0 194:2.0 196:1.0 244:20.0 245:2.0 246:2.0 250:9.0 251:2.0 252:1.0 253:2.0 276:1.0 284:4.0 287:4.0 297:2.0 307:2.0 319:2.0 325:2.0 341:1.0 353:1.0 753:5.0 784:1.0 785:4.0 1580:5.0 1585:1.0 1607:4.0 2437:1.0 2438:1.0 2439:1.0 2440:1.0 2441:3.0 2442:1.0 2443:1.0 2444:2.0 2445:1.0 2446:1.0 2447:3.0 2448:1.0 2449:1.0 2450:1.0 2451:1.0 2452:1.0 2453:1.0 2454:1.0 2455:1.0 2456:1.0 2457:1.0 2458:1.0 2459:1.0 2460:1.0 2461:1.0 2462:1.0 2463:1.0 2464:1.0 2465:1.0 2466:1.0 2467:1.0 2468:1.0 2469:1.0 2470:1.0 2471:1.0 2472:1.0 2473:1.0 2474:1.0 2475:1.0 2476:1.0 2477:1.0 2478:1.0 2479:1.0 2480:1.0 2481:1.0 2482:1.0 2483:1.0 2484:1.0 2485:1.0 2486:1.0 2487:1.0 2488:1.0 2489:1.0 2490:1.0 2491:2.0 2492:1.0 2493:1.0 2494:1.0 2495:1.0 2496:1.0 2497:1.0 2498:1.0 2499:1.0 2500:1.0 2501:1.0 2502:1.0 2503:1.0 2504:2.0 
0.010286045004275036 4:1.0 35:1.0 172:12.0 173:1.0 175:12.0 176:3.0 194:1.0 196:1.0 244:10.0 245:1.0 246:1.0 250:10.0 251:2.0 252:1.0 253:1.0 275:1.0 287:1.0 875:27.0 972:26.0 1478:1.0 1483:1.0 1942:1.0 2505:3.0 2506:1.0 2507:5.0 2508:1.0 2509:1.0 2510:2.0 2511:2.0 2512:1.0 2513:2.0 2514:1.0 2515:1.0 2516:1.0 2517:1.0 2518:1.0 2519:1.0 2520:1.0 2521:1.0 2522:1.0 2523:1.0 2524:1.0 2525:1.0 2526:1.0 2527:1.0 2528:1.0 2529:1.0 2530:1.0 2531:1.0 2532:1.0 2533:1.0 2534:1.0 2535:1.0 2536:1.0 2537:1.0 2538:1.0 2539:1.0 2540:1.0 2541:2.0 2542:1.0 2543:1.0 2544:1.0 2545:3.0 2546:1.0 2547:1.0 2548:1.0 2549:1.0 2550:1.0 2551:1.0 2552:1.0 2553:1.0 2554:1.0 2555:1.0 2556:1.0 2557:1.0 2558:1.0 2559:1.0 2560:1.0 2561:1.0 
0.0065311462757881465 4:1.0 35:2.0 172:24.0 173:2.0 194:2.0 244:20.0 245:2.0 246:2.0 1102:7.0 1114:1.0 1130:1.0 1155:6.0 1468:1.0 1469:1.0 2562:2.0 2563:2.0 2564:4.0 2565:1.0 2566:4.0 2567:2.0 2568:2.0 2569:5.0 2570:3.0 2571:1.0 2572:1.0 2573:2.0 2574:1.0 2575:1.0 2576:1.0 2577:1.0 2578:1.0 2579:1.0 2580:1.0 2581:2.0 2582:1.0 2583:1.0 2584:1.0 2585:1.0 2586:1.0 2587:1.0 2588:1.0 2589:1.0 2590:1.0 2591:1.0 2592:1.0 2593:2.0 2594:1.0 2595:1.0 2596:2.0 2597:2.0 2598:1.0 2599:1.0 2600:3.0 2601:1.0 2602:1.0 2603:1.0 2604:1.0 2605:1.0 2606:1.0 2607:1.0 2608:4.0 2609:1.0 2610:2.0 
2.2924589759270762E-4 4:6.0 35:4.0 167:1.0 172:24.0 173:50.0 175:12.0 176:3.0 196:1.0 244:17.0 245:6.0 246:7.0 250:11.0 251:1.0 252:2.0 398:1.0 803:2.0 814:42.0 1237:1.0 1348:1.0 1401:1.0 2440:1.0 2646:1.0 2809:1.0 2837:1.0 2839:1.0 2886:1.0 2891:1.0 2892:1.0 2893:2.0 2894:1.0 2896:1.0 2902:1.0 2910:1.0 2911:1.0 2921:1.0 2923:1.0 2936:2.0 2942:1.0 2947:1.0 2948:2.0 2949:1.0 2950:2.0 2951:1.0 2952:2.0 2953:1.0 2954:1.0 2955:2.0 2956:1.0 2957:2.0 2958:4.0 2959:5.0 2960:1.0 2961:2.0 2962:2.0 2963:2.0 2964:2.0 2965:2.0 2966:2.0 2967:1.0 2968:2.0 2969:1.0 2970:3.0 2971:2.0 2972:2.0 2973:6.0 2974:1.0 2975:1.0 2976:1.0 2977:1.0 2978:1.0 2979:1.0 2980:2.0 2981:1.0 2982:1.0 2983:1.0 2984:3.0 2985:1.0 2986:1.0 2987:1.0 2988:1.0 2989:1.0 2990:1.0 2991:1.0 2992:1.0 2993:1.0 2994:1.0 2995:1.0 2996:1.0 2997:1.0 2998:1.0 2999:1.0 3000:1.0 3001:1.0 3002:1.0 3003:1.0 3004:1.0 3005:1.0 3006:1.0 3007:1.0 3008:1.0 3009:1.0 3010:1.0 3011:1.0 3012:1.0 3013:1.0 3014:1.0 3015:1.0 3016:1.0 3017:1.0 3018:2.0 3019:1.0 3020:1.0 3021:1.0 3022:1.0 3023:1.0 3024:1.0 3025:1.0 3026:1.0 3027:1.0 3028:1.0 3029:1.0 3030:1.0 3031:1.0 3032:1.0 3033:1.0 3034:1.0 3035:1.0 3036:1.0 3037:1.0 3038:1.0 3039:1.0 3040:1.0 3041:1.0 3042:1.0 3043:1.0 3044:1.0 3045:1.0 3046:1.0 3047:1.0 3048:1.0 3049:1.0 3050:1.0 3051:1.0 3052:1.0 3053:1.0 3054:1.0 3055:1.0 3056:1.0 3057:1.0 3058:1.0 3059:1.0 3060:1.0 3061:1.0 3062:1.0 3063:1.0 3064:3.0 3065:1.0 3066:3.0 3067:1.0 3068:1.0 3069:1.0 3070:1.0 3071:1.0 3072:1.0 3073:2.0 3074:1.0 3075:1.0 3076:1.0 3077:1.0 3078:1.0 3079:2.0 3080:1.0 3081:1.0 3082:1.0 3083:1.0 3084:1.0 3085:1.0 3086:1.0 3087:1.0 3088:1.0 3089:1.0 3090:2.0 3091:3.0 3092:1.0 3093:1.0 3094:1.0 
5.328173564602449E-4 4:10.0 15:1.0 21:12.0 22:36.0 23:25.0 35:5.0 36:1.0 87:9.0 88:2.0 89:29.0 90:1.0 91:2.0 92:1.0 172:24.0 173:26.0 194:1.0 244:20.0 245:3.0 246:3.0 729:2.0 803:1.0 814:22.0 1006:1.0 1401:2.0 2646:1.0 2818:1.0 2819:8.0 2821:2.0 2832:1.0 2877:6.0 2881:1.0 2891:1.0 2892:1.0 2893:2.0 2894:3.0 2901:1.0 2902:2.0 2911:1.0 2921:1.0 2923:1.0 2928:1.0 2930:1.0 2931:1.0 2936:1.0 2938:1.0 2939:1.0 2942:1.0 2958:4.0 2959:5.0 2960:1.0 2965:14.0 2966:2.0 2989:1.0 3027:1.0 3028:1.0 3050:1.0 3064:2.0 3065:2.0 3066:2.0 3067:1.0 3079:1.0 3095:1.0 3096:12.0 3097:1.0 3098:2.0 3099:10.0 3100:1.0 3101:1.0 3102:1.0 3103:5.0 3104:1.0 3105:2.0 3106:1.0 3107:4.0 3108:1.0 3109:2.0 3110:1.0 3111:3.0 3112:3.0 3113:1.0 3114:1.0 3115:1.0 3116:1.0 3117:1.0 3118:1.0 3119:1.0 3120:1.0 3121:2.0 3122:1.0 3123:1.0 3124:1.0 3125:1.0 3126:1.0 3127:1.0 3128:1.0 3129:1.0 3130:1.0 3131:1.0 3132:1.0 3133:1.0 3134:1.0 3135:1.0 3136:1.0 3137:1.0 3138:1.0 3139:1.0 3140:1.0 3141:1.0 3142:1.0 3143:1.0 3144:1.0 3145:1.0 3146:1.0 3147:1.0 3148:1.0 3149:1.0 3150:1.0 3151:1.0 3152:1.0 3153:1.0 3154:1.0 3155:1.0 3156:1.0 3157:1.0 3158:1.0 3159:1.0 3160:1.0 3161:1.0 3162:1.0 3163:1.0 3164:1.0 3165:1.0 3166:1.0 3167:1.0 3168:1.0 3169:1.0 3170:1.0 3171:1.0 3172:1.0 3173:1.0 3174:1.0 3175:1.0 3176:1.0 3177:1.0 3178:1.0 3179:1.0 3180:1.0 3181:1.0 3182:1.0 3183:1.0 3184:1.0 3185:1.0 3186:1.0 3187:1.0 3188:9.0 3189:2.0 3190:2.0 3191:10.0 3192:1.0 3193:1.0 3194:1.0 3195:2.0 3196:2.0 3197:2.0 3198:1.0 3199:2.0 3200:8.0 3201:1.0 3202:2.0 3203:1.0 3204:1.0 3205:1.0 3206:1.0 3207:1.0 3208:4.0 3209:1.0 3210:1.0 3211:1.0 3212:1.0 3213:1.0 3214:1.0 3215:1.0 3216:1.0 3217:1.0 3218:1.0 3219:1.0 3220:1.0 3221:1.0 3222:1.0 3223:1.0 3224:1.0 3225:1.0 3226:1.0 3227:1.0 3228:22.0 3229:2.0 3230:1.0 3231:1.0 3232:1.0 3233:2.0 3234:1.0 3235:1.0 3236:1.0 3237:1.0 
8.64786557567949E-4 4:5.0 15:1.0 32:1.0 35:6.0 172:12.0 173:25.0 244:9.0 245:2.0 246:3.0 729:1.0 753:5.0 757:1.0 762:1.0 783:1.0 784:1.0 785:3.0 803:1.0 814:22.0 859:12.0 860:1.0 879:1.0 936:10.0 1238:1.0 2440:1.0 2837:1.0 2839:1.0 2936:1.0 2957:2.0 2958:4.0 2959:5.0 2960:1.0 2965:2.0 2966:2.0 2967:1.0 2968:4.0 2969:2.0 2982:1.0 2988:1.0 2989:1.0 2994:1.0 2995:1.0 3014:1.0 3028:1.0 3036:1.0 3037:1.0 3062:1.0 3064:2.0 3065:2.0 3066:2.0 3067:1.0 3079:2.0 3080:1.0 3081:1.0 3083:2.0 3084:1.0 3100:1.0 3101:1.0 3102:1.0 3103:5.0 3104:1.0 3122:1.0 3124:1.0 3125:1.0 3132:1.0 3149:1.0 3153:1.0 3154:1.0 3155:1.0 3202:2.0 3203:1.0 3206:1.0 3207:1.0 3208:3.0 3209:1.0 3210:1.0 3238:1.0 3239:1.0 3240:1.0 3241:1.0 3242:1.0 3243:1.0 3244:2.0 3245:1.0 3246:1.0 3247:3.0 3248:1.0 3249:1.0 3250:1.0 3251:1.0 3252:1.0 3253:1.0 3254:1.0 3255:1.0 3256:1.0 3257:1.0 3258:1.0 3259:1.0 3260:1.0 3261:1.0 3262:1.0 3263:1.0 3264:1.0 3265:1.0 3266:1.0 3267:1.0 3268:1.0 3269:1.0 3270:1.0 3271:1.0 3272:1.0 3273:1.0 3274:1.0 3275:1.0 3276:1.0 3277:1.0 3278:1.0 3279:1.0 3280:1.0 3281:1.0 3282:1.0 3283:1.0 3284:1.0 3285:1.0 3286:1.0 3287:1.0 3288:1.0 3289:1.0 3290:1.0 3291:1.0 3292:1.0 3293:1.0 3294:1.0 3295:1.0 3296:1.0 3297:1.0 3298:1.0 3299:1.0 3300:1.0 3301:1.0 3302:1.0 3303:1.0 3304:1.0 3305:1.0 3306:1.0 3307:1.0 3308:1.0 3309:1.0 3310:1.0 3311:1.0 3312:1.0 3313:1.0 3314:1.0 3315:1.0 3316:2.0 3317:1.0 3318:1.0 3319:1.0 
0.001147854570781304 4:3.0 21:12.0 22:12.0 23:1.0 35:3.0 42:1.0 87:9.0 88:2.0 89:10.0 90:1.0 91:1.0 103:3.0 117:1.0 149:2.0 167:1.0 341:1.0 353:1.0 590:1.0 1302:3.0 1714:1.0 2816:2.0 2817:1.0 2818:1.0 2819:2.0 2821:1.0 2826:1.0 2830:1.0 2831:1.0 2837:2.0 2839:2.0 2851:1.0 2872:1.0 2873:1.0 2874:1.0 2877:1.0 2890:1.0 3229:1.0 3238:1.0 3320:3.0 3322:3.0 3325:1.0 3329:2.0 3332:1.0 3357:1.0 3361:2.0 3362:1.0 3367:2.0 3375:1.0 3382:1.0 3391:1.0 3392:1.0 3408:1.0 3421:1.0 3423:1.0 3439:2.0 3440:1.0 3441:2.0 3442:3.0 3443:1.0 3444:1.0 3445:1.0 3446:3.0 3447:1.0 3448:1.0 3449:5.0 3450:1.0 3451:1.0 3452:1.0 3453:1.0 3454:2.0 3455:1.0 3456:1.0 3457:1.0 3458:1.0 3459:1.0 3460:1.0 3461:1.0 3462:1.0 3463:1.0 3464:1.0 3465:1.0 3466:1.0 3467:1.0 3468:1.0 3469:1.0 3470:1.0 3471:1.0 3472:1.0 3473:1.0 3474:1.0 3475:1.0 3476:2.0 3477:1.0 3478:1.0 3479:1.0 3480:1.0 3481:1.0 3482:1.0 3483:1.0 3484:1.0 3485:1.0 3486:1.0 3487:1.0 3488:1.0 3489:1.0 3490:1.0 3491:1.0 3492:1.0 3493:1.0 3494:1.0 3495:1.0 3496:1.0 3497:1.0 3498:1.0 3499:1.0 3500:1.0 3501:1.0 3502:1.0 3503:1.0 3504:1.0 3505:1.0 3506:1.0 3507:1.0 3508:1.0 3509:1.0 3510:1.0 3511:1.0 3512:1.0 3513:1.0 3514:1.0 3515:1.0 3516:1.0 3517:1.0 3518:2.0 3519:1.0 3520:1.0 3521:1.0 3522:1.0 3523:1.0 3524:1.0 3525:1.0 3526:1.0 3527:1.0 3528:2.0 3529:1.0 3530:1.0 3531:1.0 3532:4.0 3533:1.0 3534:1.0 3535:1.0 3536:1.0 3537:1.0 
0.004644252166265801 4:1.0 25:1.0 172:12.0 173:1.0 194:1.0 244:11.0 245:1.0 275:1.0 435:3.0 436:2.0 453:1.0 479:2.0 481:1.0 819:2.0 822:1.0 838:1.0 985:3.0 1875:1.0 1880:1.0 1895:2.0 1898:3.0 1901:3.0 1921:1.0 1926:2.0 1942:1.0 2018:1.0 2068:1.0 2080:1.0 2085:1.0 2107:1.0 2122:1.0 2194:1.0 2253:2.0 2425:1.0 3918:2.0 3919:1.0 3920:1.0 3921:1.0 3922:3.0 3923:1.0 3924:1.0 3925:1.0 3926:1.0 3927:1.0 3928:1.0 3929:1.0 3930:1.0 3931:1.0 3932:1.0 3933:1.0 3934:1.0 3935:1.0 3936:1.0 3937:1.0 3938:1.0 3939:1.0 3940:1.0 3941:1.0 3942:1.0 3943:1.0 3944:1.0 3945:1.0 3946:1.0 3947:1.0 3948:1.0 3949:1.0 3950:1.0 3951:1.0 3952:2.0 3953:1.0 3954:1.0 3955:1.0 
0.02412944688112135 4:1.0 289:4.0 290:1.0 328:2.0 329:1.0 503:1.0 702:1.0 703:1.0 704:2.0 735:1.0 760:1.0 998:1.0 2283:1.0 2334:2.0 2342:1.0 2385:1.0 4022:3.0 4023:1.0 4024:1.0 4025:1.0 4026:1.0 4027:1.0 4028:1.0 4029:1.0 4030:1.0 4031:1.0 4032:2.0 4033:1.0 4034:1.0 4035:1.0 
0.00716318147639378 4:1.0 10:25.0 28:1.0 29:1.0 35:1.0 69:24.0 175:12.0 176:3.0 196:1.0 250:10.0 251:1.0 252:2.0 253:1.0 276:1.0 284:2.0 297:1.0 307:1.0 319:1.0 438:2.0 484:1.0 819:2.0 822:1.0 838:1.0 1875:1.0 1880:1.0 1898:3.0 1900:2.0 1926:2.0 1929:1.0 2085:1.0 3650:2.0 3681:1.0 4036:1.0 4037:3.0 4038:3.0 4039:1.0 4040:1.0 4041:1.0 4042:1.0 4043:1.0 4044:1.0 4045:1.0 4046:1.0 4047:1.0 4048:1.0 4049:1.0 4050:1.0 4051:1.0 4052:1.0 4053:1.0 4054:1.0 4055:1.0 4056:1.0 4057:1.0 4058:1.0 4059:1.0 4060:1.0 4061:1.0 4062:1.0 4063:1.0 4064:2.0 4065:1.0 4066:2.0 4067:1.0 4068:1.0 4069:1.0 4070:1.0 4071:1.0 4072:1.0 4073:1.0 4074:1.0 4075:1.0 4076:1.0 
0.00390185186515439 4:1.0 10:3.0 26:1.0 32:2.0 35:4.0 69:1.0 103:3.0 117:1.0 149:2.0 172:24.0 173:26.0 175:24.0 176:6.0 194:1.0 196:2.0 244:21.0 245:2.0 246:2.0 250:21.0 251:2.0 252:3.0 253:2.0 277:1.0 398:1.0 521:1.0 686:2.0 773:1.0 803:1.0 814:23.0 1102:7.0 1114:1.0 1116:1.0 1155:6.0 1237:2.0 1348:1.0 1401:1.0 2809:1.0 2828:1.0 2837:2.0 2839:2.0 3476:1.0 4272:1.0 4298:1.0 4345:1.0 4369:1.0 4370:1.0 4371:2.0 4372:1.0 4373:2.0 4374:1.0 4375:2.0 4376:2.0 4377:1.0 4378:2.0 4379:2.0 4380:2.0 4381:2.0 4382:2.0 4383:1.0 4384:1.0 4385:1.0 4386:1.0 4387:4.0 4388:2.0 4389:1.0 4390:1.0 4391:1.0 4392:1.0 4393:1.0 4394:1.0 4395:1.0 4396:1.0 4397:1.0 4398:1.0 4399:1.0 4400:1.0 4401:1.0 4402:1.0 4403:1.0 4404:1.0 4405:1.0 4406:1.0 4407:1.0 4408:1.0 4409:2.0 4410:2.0 4411:2.0 4412:2.0 4413:2.0 4414:1.0 4415:1.0 4416:1.0 4417:1.0 4418:1.0 4419:1.0 4420:1.0 4421:1.0 4422:1.0 4423:1.0 4424:1.0 4425:1.0 4426:1.0 4427:1.0 4428:1.0 4429:1.0 4430:1.0 4431:1.0 4432:1.0 4433:1.0 4434:1.0 4435:1.0 4436:1.0 4437:1.0 4438:1.0 4439:1.0 4440:1.0 4441:1.0 4442:1.0 4443:1.0 4444:1.0 4445:1.0 4446:1.0 4447:1.0 4448:1.0 4449:1.0 4450:1.0 4451:1.0 4452:1.0 4453:1.0 4454:1.0 4455:1.0 4456:1.0 4457:1.0 4458:1.0 4459:1.0 4460:1.0 
0.0038295299820730925 4:1.0 23:1.0 35:4.0 103:3.0 117:1.0 149:2.0 172:12.0 173:1.0 175:24.0 176:6.0 189:1.0 194:1.0 196:2.0 207:1.0 244:11.0 246:1.0 250:20.0 251:3.0 252:3.0 253:2.0 398:1.0 702:1.0 703:1.0 704:2.0 735:1.0 760:1.0 875:3.0 893:1.0 928:1.0 972:2.0 1348:1.0 1469:1.0 1898:2.0 1906:1.0 1926:1.0 2646:5.0 3104:1.0 3958:1.0 3966:1.0 4030:1.0 4642:4.0 4643:3.0 4644:1.0 4645:3.0 4646:3.0 4647:1.0 4648:1.0 4649:1.0 4650:3.0 4651:1.0 4652:1.0 4653:1.0 4654:1.0 4655:1.0 4656:1.0 4657:1.0 4658:1.0 4659:1.0 4660:2.0 4661:1.0 4662:1.0 4663:1.0 4664:1.0 4665:1.0 4666:1.0 4667:2.0 4668:2.0 4669:1.0 4670:1.0 4671:1.0 4672:1.0 4673:1.0 4674:1.0 4675:1.0 4676:1.0 4677:1.0 4678:1.0 4679:1.0 4680:1.0 4681:1.0 4682:1.0 4683:1.0 4684:2.0 4685:2.0 4686:1.0 4687:1.0 4688:1.0 4689:1.0 4690:1.0 4691:1.0 4692:1.0 4693:1.0 4694:1.0 4695:1.0 4696:1.0 4697:2.0 4698:1.0 4699:2.0 4700:1.0 4701:1.0 4702:1.0 4703:1.0 4704:1.0 4705:1.0 4706:1.0 4707:1.0 4708:1.0 4709:3.0 4710:1.0 4711:2.0 4712:1.0 4713:1.0 4714:1.0 4715:1.0 4716:1.0 4717:2.0 4718:1.0 4719:1.0 4720:1.0 4721:1.0 4722:1.0 4723:1.0 4724:1.0 4725:1.0 4726:1.0 4727:1.0 4728:2.0 4729:1.0 4730:1.0 4731:1.0 4732:1.0 4733:1.0 4734:1.0 4735:1.0 4736:1.0 
0.018848768085142957 35:1.0 646:1.0 820:3.0 823:1.0 841:2.0 1482:1.0 1498:1.0 1612:3.0 1652:2.0 4778:1.0 4779:1.0 4780:1.0 4781:1.0 4782:1.0 4783:1.0 4784:1.0 
0.011611085508342835 4:1.0 10:1.0 16:3.0 35:2.0 78:2.0 166:1.0 167:1.0 343:2.0 355:1.0 390:1.0 703:1.0 704:2.0 714:1.0 735:1.0 757:3.0 766:1.0 793:2.0 875:27.0 972:26.0 980:1.0 989:3.0 1000:1.0 1116:1.0 1146:2.0 1483:1.0 2512:2.0 4030:1.0 4461:1.0 4466:3.0 4473:1.0 4486:1.0 4498:1.0 4502:2.0 4785:1.0 4791:1.0 4801:1.0 4803:1.0 4820:1.0 4840:1.0 4846:1.0 4864:2.0 4865:3.0 4866:3.0 4867:1.0 4868:1.0 4869:1.0 4870:1.0 4871:1.0 4872:1.0 4873:1.0 4874:1.0 4875:1.0 4876:1.0 4877:1.0 4878:1.0 4879:1.0 4880:1.0 4881:1.0 4882:1.0 4883:1.0 4884:1.0 4885:1.0 4886:1.0 4887:1.0 4888:1.0 4889:1.0 4890:1.0 4891:1.0 4892:1.0 4893:1.0 4894:1.0 4895:1.0 4896:1.0 4897:1.0 4898:1.0 4899:1.0 4900:2.0 4901:1.0 
0.008162183883434553 4:1.0 7:1.0 15:2.0 35:3.0 123:2.0 435:1.0 436:2.0 480:1.0 481:1.0 757:3.0 766:1.0 793:2.0 821:2.0 824:1.0 844:1.0 846:1.0 1279:1.0 1332:1.0 1333:1.0 1334:1.0 1344:1.0 1476:1.0 1566:1.0 2365:1.0 2366:1.0 2569:2.0 2608:1.0 3959:2.0 4743:1.0 4751:1.0 4791:1.0 4796:2.0 4803:1.0 4861:1.0 4862:1.0 4902:1.0 4903:3.0 4904:1.0 4905:1.0 4906:2.0 4907:2.0 4908:2.0 4909:1.0 4910:1.0 4911:1.0 4912:1.0 4913:1.0 4914:1.0 4915:1.0 4916:1.0 4917:1.0 4918:1.0 4919:1.0 4920:1.0 4921:1.0 4922:1.0 4923:1.0 4924:1.0 4925:1.0 4926:1.0 4927:1.0 4928:1.0 4929:1.0 4930:1.0 4931:1.0 4932:1.0 4933:1.0 4934:1.0 4935:1.0 4936:1.0 4937:1.0 4938:1.0 4939:2.0 4940:1.0 4941:1.0 4942:1.0 4943:1.0 4944:1.0 4945:1.0 4946:1.0 4947:1.0 4948:1.0 4949:1.0 4950:1.0 4951:1.0 4952:1.0 4953:1.0 4954:1.0 4955:1.0 4956:1.0 
5.062231420672421E-4 4:1.0 28:1.0 35:2.0 403:1.0 511:2.0 703:1.0 704:2.0 714:1.0 735:1.0 752:1.0 757:1.0 859:12.0 860:1.0 875:3.0 879:1.0 893:1.0 928:1.0 936:10.0 972:2.0 2176:1.0 2512:2.0 2964:3.0 2965:1.0 2966:1.0 3077:2.0 3079:1.0 3104:1.0 3312:1.0 3313:1.0 3314:1.0 3957:1.0 3958:1.0 3970:1.0 4030:1.0 4043:1.0 4649:1.0 4663:1.0 4801:1.0 4840:1.0 4957:1.0 4958:1.0 4959:1.0 4960:1.0 4961:1.0 4962:1.0 4963:1.0 4964:1.0 4965:1.0 4966:1.0 4967:1.0 4968:1.0 4969:1.0 4970:1.0 4971:1.0 4972:1.0 4973:1.0 4974:1.0 4975:1.0 4976:1.0 4977:1.0 4978:1.0 4979:1.0 4980:1.0 4981:1.0 4982:1.0 4983:1.0 4984:1.0 4985:1.0 4986:1.0 4987:1.0 4988:1.0 4989:1.0 4990:1.0 4991:1.0 4992:1.0 4993:1.0 4994:1.0 4995:1.0 4996:1.0 4997:1.0 4998:1.0 4999:1.0 5000:1.0 
0.0014007342577816836 4:1.0 8:1.0 35:1.0 103:3.0 117:1.0 149:2.0 172:24.0 173:26.0 194:1.0 244:20.0 245:2.0 246:2.0 447:2.0 757:3.0 766:1.0 793:2.0 803:1.0 814:24.0 1092:1.0 1229:2.0 1230:2.0 1231:1.0 1232:2.0 1233:3.0 1234:3.0 1240:1.0 1241:1.0 1251:1.0 1262:1.0 1266:2.0 1268:2.0 1332:1.0 1333:1.0 1334:1.0 1344:1.0 1441:1.0 1443:1.0 1444:1.0 1468:1.0 1469:1.0 1485:1.0 2366:1.0 2374:1.0 2591:1.0 2837:1.0 2839:1.0 3238:1.0 3958:1.0 3964:5.0 3970:1.0 3973:1.0 3992:1.0 4020:1.0 4021:4.0 5001:2.0 5002:2.0 5003:3.0 5004:1.0 5005:1.0 5006:1.0 5007:1.0 5008:1.0 5009:1.0 5010:1.0 5011:1.0 5012:1.0 5013:1.0 5014:1.0 5015:1.0 5016:1.0 5017:1.0 5018:1.0 5019:1.0 5020:1.0 5021:1.0 5022:1.0 5023:1.0 5024:1.0 5025:1.0 5026:1.0 5027:1.0 5028:1.0 5029:1.0 5030:1.0 5031:1.0 5032:1.0 5033:1.0 5034:1.0 5035:1.0 5036:1.0 5037:1.0 5038:1.0 5039:1.0 5040:1.0 5041:1.0 5042:1.0 5043:1.0 5044:2.0 5045:1.0 5046:1.0 5047:1.0 5048:1.0 5049:1.0 5050:1.0 5051:1.0 5052:1.0 5053:1.0 5054:1.0 
0.003386027347596215 4:1.0 28:1.0 35:2.0 175:12.0 176:3.0 196:1.0 250:10.0 251:1.0 252:1.0 253:2.0 510:2.0 554:1.0 4022:1.0 4043:1.0 5078:1.0 5079:1.0 5080:1.0 5081:2.0 5082:1.0 5083:2.0 5084:2.0 5085:1.0 5086:1.0 5087:1.0 5088:1.0 5089:1.0 5090:1.0 5091:1.0 5092:1.0 5093:1.0 5094:1.0 5095:1.0 5096:1.0 5097:1.0 5098:1.0 5099:1.0 5100:1.0 5101:1.0 5102:1.0 5103:1.0 5104:1.0 5105:1.0 5106:1.0 5107:1.0 5108:1.0 5109:1.0 5110:1.0 5111:1.0 5112:1.0 5113:1.0 5114:1.0 5115:1.0 5116:1.0 5117:1.0 
0.002148078455853378 4:1.0 175:12.0 176:27.0 250:11.0 251:1.0 252:25.0 253:1.0 514:2.0 562:1.0 703:1.0 704:2.0 714:1.0 735:1.0 752:1.0 1581:1.0 2176:1.0 4030:1.0 4390:1.0 4963:1.0 5118:3.0 5119:1.0 5120:1.0 5121:2.0 5122:1.0 5123:1.0 5124:1.0 5125:1.0 5126:1.0 5127:1.0 5128:1.0 5129:1.0 5130:1.0 5131:1.0 5132:1.0 5133:1.0 5134:1.0 5135:1.0 5136:1.0 5137:1.0 5138:2.0 5139:1.0 5140:1.0 5141:1.0 5142:1.0 
0.011417194334059093 4:2.0 8:1.0 10:25.0 25:1.0 29:1.0 32:2.0 35:5.0 69:24.0 103:3.0 117:1.0 149:2.0 167:1.0 175:24.0 176:6.0 196:2.0 250:20.0 251:3.0 252:3.0 253:2.0 275:1.0 339:5.0 350:1.0 363:1.0 383:4.0 404:3.0 410:1.0 418:1.0 431:2.0 571:1.0 686:2.0 703:1.0 704:2.0 714:1.0 734:1.0 870:2.0 1331:2.0 1447:1.0 1449:1.0 1470:24.0 1471:2.0 1478:1.0 1486:1.0 1540:22.0 1541:1.0 1543:1.0 1544:1.0 1545:1.0 1950:1.0 2179:1.0 2195:1.0 2256:1.0 2257:1.0 3104:1.0 3920:1.0 3921:1.0 3924:1.0 4030:1.0 4261:3.0 4262:1.0 4359:1.0 4382:2.0 4387:2.0 4390:1.0 4397:1.0 4410:2.0 4429:1.0 4459:1.0 4460:1.0 4503:1.0 4512:2.0 4528:1.0 4577:1.0 4957:1.0 5143:1.0 5144:1.0 5145:4.0 5146:6.0 5147:1.0 5148:1.0 5149:1.0 5150:1.0 5151:1.0 5152:3.0 5153:1.0 5154:1.0 5155:1.0 5156:1.0 5157:1.0 5158:1.0 5159:1.0 5160:1.0 5161:1.0 5162:1.0 5163:1.0 5164:1.0 5165:1.0 5166:1.0 5167:1.0 5168:1.0 5169:1.0 5170:1.0 5171:1.0 5172:1.0 5173:1.0 5174:1.0 5175:1.0 5176:1.0 5177:1.0 5178:1.0 5179:1.0 5180:1.0 5181:1.0 5182:1.0 5183:1.0 5184:1.0 5185:1.0 5186:1.0 5187:1.0 5188:1.0 5189:1.0 5190:1.0 5191:1.0 5192:1.0 5193:1.0 5194:1.0 5195:1.0 5196:1.0 5197:1.0 5198:1.0 5199:1.0 5200:1.0 5201:3.0 5202:1.0 5203:1.0 5204:1.0 5205:1.0 5206:4.0 5207:1.0 5208:1.0 5209:1.0 5210:1.0 5211:1.0 5212:1.0 5213:1.0 5214:1.0 5215:1.0 5216:1.0 5217:1.0 5218:1.0 5219:1.0 5220:1.0 5221:1.0 5222:1.0 5223:1.0 5224:1.0 5225:1.0 5226:1.0 5227:2.0 5228:1.0 5229:2.0 5230:1.0 
0.00291725363182692 4:1.0 10:29.0 15:1.0 29:1.0 35:6.0 69:25.0 107:3.0 120:1.0 154:2.0 172:12.0 173:1.0 175:24.0 176:6.0 189:1.0 194:1.0 196:2.0 207:1.0 244:10.0 245:1.0 246:1.0 250:20.0 251:3.0 252:2.0 253:4.0 275:1.0 277:1.0 339:5.0 350:1.0 363:1.0 383:4.0 398:1.0 435:1.0 436:3.0 438:3.0 480:1.0 481:1.0 484:1.0 521:1.0 590:1.0 601:1.0 702:1.0 703:1.0 704:2.0 714:1.0 734:1.0 757:3.0 761:1.0 766:1.0 777:1.0 793:2.0 875:3.0 893:1.0 928:1.0 972:2.0 1116:2.0 1348:1.0 1401:1.0 2171:1.0 2421:2.0 2432:1.0 2513:2.0 2524:1.0 2559:1.0 2646:1.0 2809:1.0 2837:1.0 2839:1.0 3920:2.0 3921:2.0 3924:2.0 3941:1.0 4030:1.0 4149:1.0 4150:1.0 4151:4.0 4153:2.0 4155:1.0 4156:1.0 4158:1.0 4162:1.0 4165:1.0 4170:1.0 4172:3.0 4176:1.0 4255:6.0 4271:1.0 4295:1.0 4296:1.0 4339:1.0 4340:4.0 4341:2.0 4342:1.0 4343:1.0 4344:1.0 4379:2.0 4380:2.0 4394:1.0 4453:1.0 4454:1.0 4455:1.0 4791:1.0 4803:1.0 4846:1.0 5146:4.0 5206:3.0 5219:2.0 5260:1.0 5261:3.0 5262:1.0 5263:1.0 5264:1.0 5265:1.0 5266:1.0 5267:1.0 5268:1.0 5269:1.0 5270:2.0 5271:1.0 5272:4.0 5273:2.0 5274:1.0 5275:1.0 5276:2.0 5277:1.0 5278:1.0 5279:1.0 5280:1.0 5281:1.0 5282:1.0 5283:1.0 5284:1.0 5285:1.0 5286:1.0 5287:1.0 5288:1.0 5289:1.0 5290:1.0 5291:1.0 5292:1.0 5293:1.0 5294:1.0 5295:1.0 5296:1.0 5297:1.0 5298:1.0 5299:1.0 5300:1.0 5301:1.0 5302:1.0 5303:1.0 5304:1.0 5305:1.0 5306:1.0 5307:1.0 5308:1.0 5309:1.0 5310:1.0 5311:1.0 5312:1.0 5313:1.0 5314:1.0 5315:1.0 5316:1.0 5317:1.0 5318:1.0 5319:1.0 5320:1.0 5321:1.0 5322:1.0 5323:1.0 5324:1.0 5325:1.0 5326:1.0 5327:1.0 5328:1.0 5329:1.0 5330:1.0 5331:1.0 5332:1.0 5333:1.0 5334:1.0 5335:1.0 5336:1.0 5337:1.0 5338:1.0 5339:1.0 5340:1.0 5341:1.0 5342:1.0 5343:1.0 5344:1.0 5345:1.0 5346:1.0 5347:1.0 5348:1.0 5349:1.0 5350:1.0 5351:1.0 5352:1.0 5353:1.0 5354:2.0 5355:1.0 5356:1.0 5357:1.0 5358:1.0 5359:1.0 5360:1.0 5361:1.0 5362:1.0 5363:1.0 5364:1.0 5365:1.0 5366:1.0 5367:1.0 5368:1.0 5369:1.0 5370:1.0 5371:1.0 5372:1.0 5373:1.0 5374:1.0 5375:1.0 5376:1.0 5377:1.0 5378:1.0 5379:1.0 5380:3.0 5381:1.0 5382:1.0 5383:1.0 5384:1.0 5385:1.0 5386:1.0 5387:1.0 5388:1.0 5389:1.0 5390:1.0 5391:1.0 5392:1.0 5393:1.0 5394:1.0 5395:1.0 
0.006314171544721311 4:1.0 10:1.0 15:1.0 35:6.0 36:1.0 54:1.0 172:36.0 173:3.0 175:48.0 176:12.0 194:3.0 196:4.0 244:32.0 245:2.0 246:2.0 250:41.0 251:5.0 252:6.0 253:4.0 285:1.0 287:1.0 339:10.0 341:1.0 350:2.0 353:1.0 363:2.0 383:8.0 438:2.0 506:1.0 548:1.0 549:1.0 870:1.0 875:3.0 893:1.0 928:1.0 972:2.0 1102:7.0 1114:1.0 1116:1.0 1155:6.0 1288:1.0 1331:3.0 1343:1.0 1470:24.0 1471:2.0 1486:1.0 1540:23.0 1541:1.0 1543:1.0 1544:1.0 1545:1.0 1613:3.0 1654:1.0 1901:1.0 2076:1.0 2517:1.0 2761:1.0 2968:2.0 2969:1.0 2995:1.0 3083:1.0 3084:1.0 3097:1.0 4180:3.0 4182:1.0 4198:2.0 4251:2.0 4266:1.0 4282:1.0 4290:1.0 4323:1.0 4325:2.0 4335:1.0 4370:1.0 4371:2.0 4382:1.0 4384:1.0 4434:1.0 4600:2.0 4607:1.0 4634:1.0 4737:2.0 4744:1.0 4765:1.0 5079:2.0 5463:1.0 5535:2.0 5586:1.0 5589:3.0 5590:1.0 5591:2.0 5592:1.0 5593:1.0 5594:1.0 5595:2.0 5596:1.0 5597:3.0 5598:1.0 5599:1.0 5600:1.0 5601:3.0 5602:1.0 5603:1.0 5604:1.0 5605:1.0 5606:3.0 5607:2.0 5608:2.0 5609:1.0 5610:1.0 5611:1.0 5612:1.0 5613:1.0 5614:1.0 5615:1.0 5616:1.0 5617:1.0 5618:1.0 5619:1.0 5620:1.0 5621:1.0 5622:1.0 5623:1.0 5624:1.0 5625:1.0 5626:1.0 5627:1.0 5628:1.0 5629:1.0 5630:1.0 5631:1.0 5632:1.0 5633:1.0 5634:1.0 5635:1.0 5636:1.0 5637:1.0 5638:1.0 5639:1.0 5640:1.0 5641:1.0 5642:1.0 5643:1.0 5644:1.0 5645:1.0 5646:1.0 5647:1.0 5648:1.0 5649:1.0 5650:1.0 5651:1.0 5652:1.0 5653:1.0 5654:1.0 5655:1.0 5656:1.0 5657:1.0 5658:1.0 5659:1.0 5660:1.0 5661:1.0 5662:1.0 5663:1.0 5664:1.0 5665:1.0 5666:1.0 5667:1.0 5668:1.0 5669:1.0 5670:1.0 5671:1.0 5672:1.0 5673:1.0 5674:1.0 5675:1.0 5676:1.0 5677:1.0 5678:1.0 5679:1.0 5680:1.0 5681:1.0 5682:2.0 5683:1.0 5684:1.0 5685:1.0 5686:1.0 5687:1.0 5688:1.0 5689:1.0 5690:1.0 5691:1.0 5692:1.0 5693:1.0 5694:1.0 5695:1.0 5696:1.0 5697:1.0 5698:1.0 5699:1.0 5700:1.0 5701:1.0 5702:1.0 5703:2.0 5704:1.0 5705:1.0 5706:1.0 5707:1.0 5708:1.0 5709:2.0 5710:1.0 5711:1.0 5712:1.0 5713:1.0 5714:1.0 5715:1.0 5716:1.0 5717:1.0 5718:1.0 5719:1.0 5720:1.0 5721:1.0 5722:1.0 5723:1.0 5724:1.0 5725:1.0 5726:1.0 5727:1.0 5728:1.0 5729:1.0 5730:1.0 5731:1.0 5732:1.0 5733:1.0 5734:1.0 5735:1.0 5736:1.0 5737:1.0 5738:1.0 5739:1.0 
3.464629457682192E-4 4:1.0 35:1.0 103:3.0 117:1.0 149:2.0 172:12.0 173:2.0 194:1.0 244:11.0 245:1.0 875:3.0 893:1.0 928:1.0 972:2.0 1895:2.0 1921:1.0 2425:1.0 3650:3.0 4044:1.0 4071:1.0 4737:26.0 4765:25.0 5783:2.0 5784:1.0 5785:3.0 5786:1.0 5787:1.0 5788:1.0 5789:5.0 5790:2.0 5791:1.0 5792:1.0 5793:1.0 5794:1.0 5795:1.0 5796:1.0 5797:1.0 5798:1.0 5799:1.0 5800:1.0 5801:1.0 5802:1.0 5803:1.0 5804:1.0 5805:1.0 5806:1.0 5807:1.0 5808:1.0 5809:1.0 5810:1.0 5811:1.0 5812:1.0 5813:1.0 5814:1.0 5815:1.0 5816:1.0 5817:1.0 5818:1.0 5819:1.0 5820:1.0 5821:1.0 5822:1.0 5823:2.0 5824:1.0 5825:1.0 5826:1.0 5827:1.0 5828:1.0 5829:1.0 5830:1.0 5831:1.0 5832:1.0 5833:4.0 5834:1.0 5835:1.0 5836:1.0 
0.0021572022745037426 103:3.0 117:1.0 149:2.0 189:1.0 207:1.0 505:1.0 513:8.0 527:1.0 531:1.0 560:7.0 590:1.0 601:1.0 870:1.0 1238:1.0 1331:2.0 1447:1.0 1471:2.0 1543:2.0 1728:1.0 2822:2.0 4470:1.0 5740:1.0 5758:1.0 5768:1.0 5771:1.0 5881:1.0 5882:2.0 5887:1.0 5906:1.0 5907:1.0 6160:1.0 6161:1.0 6162:1.0 6163:1.0 6164:2.0 6165:2.0 6166:3.0 6167:12.0 6168:1.0 6169:2.0 6170:2.0 6171:1.0 6172:1.0 6173:1.0 6174:1.0 6175:1.0 6176:1.0 6177:1.0 6178:1.0 6179:1.0 6180:1.0 6181:1.0 6182:1.0 6183:1.0 6184:1.0 6185:1.0 6186:1.0 6187:1.0 6188:1.0 6189:1.0 6190:1.0 6191:1.0 6192:1.0 6193:1.0 6194:1.0 6195:1.0 6196:1.0 6197:1.0 6198:1.0 6199:1.0 6200:1.0 6201:1.0 6202:1.0 6203:1.0 6204:1.0 6205:1.0 6206:1.0 6207:1.0 6208:2.0 6209:1.0 6210:1.0 6211:11.0 6212:1.0 6213:1.0 6214:1.0 6215:1.0 6216:1.0 6217:1.0 6218:1.0 6219:1.0 6220:1.0 6221:1.0 6222:1.0 
0.0022973341826705304 4:1.0 8:1.0 25:1.0 35:1.0 167:1.0 1006:1.0 1401:1.0 1879:1.0 3104:1.0 4388:2.0 4957:1.0 5163:1.0 5223:1.0 6373:1.0 6374:1.0 6375:1.0 6376:1.0 6377:1.0 6378:1.0 6379:1.0 6380:1.0 6381:1.0 6382:1.0 6383:1.0 6384:1.0 6385:1.0 6386:1.0 6387:1.0 6388:1.0 6389:1.0 6390:1.0 6391:1.0 6392:1.0 6393:1.0 
0.023839282104935754 4:1.0 103:3.0 117:1.0 149:2.0 189:1.0 207:1.0 1898:2.0 1906:1.0 1926:1.0 2509:1.0 5945:1.0 5959:1.0 5960:1.0 6495:1.0 6496:1.0 6497:1.0 6498:1.0 6499:1.0 6500:1.0 6501:1.0 6502:1.0 6503:1.0 6504:1.0 6505:1.0 6506:1.0 6507:1.0 6508:1.0 6509:1.0 
0.00658202544625191 4:1.0 15:1.0 35:2.0 36:1.0 167:1.0 404:3.0 410:1.0 418:1.0 431:2.0 508:1.0 509:1.0 523:1.0 552:1.0 702:1.0 703:1.0 704:2.0 734:1.0 760:1.0 1401:1.0 2310:5.0 2313:1.0 2327:4.0 2811:1.0 2813:5.0 4030:1.0 4737:2.0 4744:1.0 4765:1.0 6596:2.0 6635:1.0 6636:2.0 6637:1.0 6638:1.0 6639:1.0 6640:1.0 6641:1.0 6642:1.0 6643:1.0 6644:1.0 6645:1.0 6646:1.0 6647:1.0 6648:1.0 6649:1.0 6650:1.0 6651:1.0 6652:1.0 6653:1.0 6654:1.0 6655:1.0 6656:1.0 6657:1.0 6658:1.0 6659:1.0 6660:3.0 6661:1.0 6662:1.0 6663:1.0 6664:1.0 6665:1.0 6666:1.0 6667:1.0 6668:1.0 6669:1.0 6670:1.0 6671:1.0 
2.4491665681910385E-4 4:3.0 10:3.0 13:1.0 22:12.0 35:4.0 69:1.0 89:11.0 103:3.0 107:2.0 117:1.0 149:2.0 154:1.0 172:24.0 173:2.0 175:36.0 176:9.0 194:2.0 196:3.0 244:21.0 245:2.0 246:1.0 250:31.0 251:3.0 252:6.0 253:2.0 275:1.0 288:2.0 289:4.0 300:2.0 328:3.0 345:1.0 662:1.0 757:1.0 820:3.0 823:1.0 841:2.0 859:12.0 860:1.0 870:2.0 879:1.0 936:11.0 938:1.0 939:1.0 1049:1.0 1116:1.0 1237:2.0 1328:2.0 1332:1.0 1333:1.0 1334:1.0 1340:1.0 1344:1.0 1373:1.0 1380:1.0 1381:1.0 1875:1.0 1880:1.0 1897:3.0 1898:2.0 1906:1.0 1924:2.0 1926:1.0 2011:1.0 2179:1.0 2195:1.0 2257:1.0 2420:1.0 2891:1.0 2892:1.0 2893:2.0 2901:1.0 2923:1.0 2968:2.0 2969:1.0 2995:1.0 3083:1.0 3084:1.0 3098:1.0 3132:1.0 3134:1.0 3175:1.0 3183:1.0 3196:1.0 3330:1.0 3918:2.0 3919:1.0 3937:1.0 3938:1.0 3999:1.0 4078:1.0 4084:1.0 4089:1.0 4105:1.0 4115:1.0 4120:1.0 4390:1.0 5152:3.0 5164:1.0 5227:2.0 5534:1.0 5543:1.0 5559:1.0 5768:1.0 5771:1.0 5775:1.0 5945:1.0 5960:1.0 6702:1.0 6703:4.0 6704:1.0 6705:1.0 6706:2.0 6707:2.0 6708:1.0 6709:2.0 6710:2.0 6711:1.0 6712:1.0 6713:1.0 6714:1.0 6715:3.0 6716:1.0 6717:1.0 6718:1.0 6719:1.0 6720:1.0 6721:1.0 6722:1.0 6723:1.0 6724:1.0 6725:1.0 6726:1.0 6727:1.0 6728:1.0 6729:1.0 6730:1.0 6731:1.0 6732:1.0 6733:1.0 6734:1.0 6735:1.0 6736:1.0 6737:1.0 6738:1.0 6739:1.0 6740:1.0 6741:1.0 6742:1.0 6743:1.0 6744:1.0 6745:1.0 6746:1.0 6747:1.0 6748:1.0 6749:1.0 6750:1.0 6751:1.0 6752:1.0 6753:1.0 6754:1.0 6755:1.0 6756:1.0 6757:1.0 6758:1.0 6759:1.0 6760:1.0 6761:1.0 6762:1.0 6763:1.0 6764:1.0 6765:1.0 6766:1.0 6767:1.0 6768:1.0 6769:1.0 6770:1.0 6771:1.0 6772:1.0 6773:1.0 6774:1.0 6775:1.0 6776:1.0 6777:1.0 6778:1.0 6779:1.0 6780:1.0 6781:1.0 6782:1.0 6783:1.0 6784:1.0 6785:1.0 6786:1.0 6787:1.0 6788:1.0 6789:1.0 6790:1.0 6791:1.0 6792:1.0 6793:1.0 6794:1.0 6795:2.0 6796:1.0 6797:1.0 6798:1.0 6799:1.0 6800:1.0 6801:1.0 6802:1.0 6803:1.0 6804:1.0 6805:1.0 6806:1.0 6807:1.0 6808:1.0 6809:1.0 6810:1.0 6811:1.0 6812:1.0 6813:1.0 6814:1.0 6815:1.0 6816:1.0 6817:1.0 6818:1.0 6819:1.0 6820:1.0 6821:1.0 6822:1.0 6823:1.0 6824:1.0 6825:1.0 6826:1.0 6827:1.0 6828:1.0 6829:1.0 6830:1.0 6831:1.0 6832:1.0 6833:1.0 6834:1.0 6835:1.0 6836:1.0 6837:1.0 6838:2.0 6839:1.0 
0.0012541983088540994 4:1.0 13:1.0 35:4.0 172:12.0 173:1.0 175:12.0 176:3.0 194:1.0 196:1.0 244:11.0 245:1.0 250:11.0 251:1.0 252:2.0 276:1.0 284:2.0 297:1.0 307:1.0 319:1.0 341:2.0 353:2.0 593:1.0 604:1.0 757:3.0 766:1.0 793:2.0 820:3.0 821:1.0 823:1.0 841:2.0 925:1.0 1402:1.0 1580:5.0 1585:1.0 1607:4.0 1694:1.0 1695:1.0 1698:1.0 1713:1.0 2137:1.0 2468:1.0 2489:1.0 3704:1.0 3725:1.0 4791:1.0 4803:1.0 5152:3.0 5164:1.0 5227:2.0 5910:1.0 6718:1.0 7449:2.0 7450:2.0 7451:2.0 7452:2.0 7453:1.0 7454:1.0 7455:1.0 7456:1.0 7457:2.0 7458:1.0 7459:1.0 7460:1.0 7461:1.0 7462:1.0 7463:1.0 7464:1.0 7465:1.0 7466:2.0 7467:1.0 7468:1.0 7469:1.0 7470:1.0 7471:1.0 7472:1.0 7473:1.0 7474:1.0 7475:1.0 7476:1.0 7477:1.0 7478:1.0 7479:1.0 7480:1.0 7481:1.0 7482:1.0 7483:1.0 7484:1.0 7485:1.0 7486:1.0 7487:1.0 7488:1.0 7489:1.0 7490:1.0 7491:1.0 7492:1.0 7493:1.0 7494:1.0 7495:1.0 7496:1.0 7497:1.0 7498:1.0 7499:1.0 7500:1.0 7501:1.0 
0.0036629334411737127 4:2.0 10:2.0 13:1.0 35:26.0 69:1.0 103:9.0 117:3.0 149:6.0 167:1.0 172:48.0 173:4.0 175:12.0 176:3.0 180:1.0 181:1.0 184:1.0 189:1.0 194:4.0 196:1.0 200:1.0 202:1.0 207:1.0 244:43.0 245:4.0 246:1.0 250:11.0 252:2.0 253:1.0 262:1.0 276:1.0 284:2.0 289:4.0 290:1.0 297:1.0 307:1.0 319:1.0 328:2.0 329:1.0 338:1.0 339:5.0 341:6.0 343:2.0 350:1.0 353:6.0 355:1.0 363:1.0 383:4.0 390:1.0 398:3.0 404:9.0 410:3.0 418:1.0 431:6.0 435:3.0 436:2.0 453:1.0 479:1.0 480:1.0 503:1.0 521:1.0 662:1.0 729:1.0 757:3.0 766:1.0 777:1.0 793:2.0 820:3.0 823:1.0 841:2.0 869:2.0 875:3.0 893:1.0 925:1.0 928:1.0 972:2.0 997:2.0 1019:1.0 1094:1.0 1177:1.0 1288:1.0 1298:1.0 1316:1.0 1348:3.0 1447:1.0 1449:1.0 1472:2.0 1487:2.0 1488:1.0 1694:1.0 1695:1.0 1698:1.0 1827:1.0 1875:1.0 1880:1.0 1898:2.0 1901:3.0 1906:1.0 1926:1.0 2075:1.0 2134:1.0 2171:1.0 2194:1.0 2253:2.0 2283:1.0 2437:1.0 2513:2.0 2524:1.0 2559:1.0 2891:1.0 2892:1.0 2893:2.0 2901:1.0 2942:1.0 2943:1.0 3104:1.0 3183:1.0 3742:1.0 3759:1.0 3799:2.0 3802:2.0 3809:1.0 3818:1.0 3941:2.0 4131:1.0 4148:1.0 4149:1.0 4206:1.0 4208:1.0 4211:1.0 4215:1.0 4253:1.0 4269:1.0 4291:1.0 4292:1.0 4336:1.0 4464:1.0 4471:1.0 4475:1.0 4660:2.0 4662:2.0 4689:1.0 4788:1.0 4789:1.0 4799:1.0 4957:1.0 5149:1.0 5152:3.0 5163:1.0 5164:1.0 5223:1.0 5227:2.0 5296:1.0 5529:2.0 5534:1.0 5543:1.0 5551:1.0 5552:1.0 5559:1.0 5567:1.0 5573:1.0 5599:1.0 5962:1.0 6033:1.0 6161:1.0 6172:1.0 6394:1.0 6395:1.0 6497:1.0 6503:1.0 6596:2.0 6640:1.0 6663:1.0 6707:8.0 6718:1.0 6723:4.0 6803:4.0 6807:1.0 6896:1.0 6909:1.0 6993:2.0 7003:3.0 7053:1.0 7071:1.0 7307:1.0 7435:1.0 7473:1.0 7508:2.0 7511:2.0 7519:1.0 7521:1.0 7538:1.0 7543:1.0 7564:1.0 7570:1.0 7637:2.0 7669:1.0 7705:1.0 7723:1.0 7743:1.0 7749:1.0 7794:1.0 7840:1.0 7847:1.0 7848:3.0 7849:1.0 7850:1.0 7851:2.0 7852:4.0 7853:1.0 7854:1.0 7855:2.0 7856:1.0 7857:2.0 7858:1.0 7859:2.0 7860:1.0 7861:1.0 7862:3.0 7863:2.0 7864:1.0 7865:1.0 7866:1.0 7867:1.0 7868:1.0 7869:1.0 7870:3.0 7871:3.0 7872:1.0 7873:1.0 7874:1.0 7875:1.0 7876:1.0 7877:1.0 7878:1.0 7879:1.0 7880:1.0 7881:1.0 7882:1.0 7883:1.0 7884:1.0 7885:1.0 7886:1.0 7887:1.0 7888:1.0 7889:1.0 7890:1.0 7891:1.0 7892:1.0 7893:1.0 7894:1.0 7895:1.0 7896:1.0 7897:1.0 7898:1.0 7899:1.0 7900:1.0 7901:1.0 7902:1.0 7903:1.0 7904:1.0 7905:1.0 7906:1.0 7907:1.0 7908:1.0 7909:1.0 7910:1.0 7911:1.0 7912:2.0 7913:1.0 7914:1.0 7915:1.0 7916:1.0 7917:1.0 7918:1.0 7919:1.0 7920:1.0 7921:1.0 7922:1.0 7923:1.0 7924:1.0 7925:1.0 7926:1.0 7927:1.0 7928:1.0 7929:1.0 7930:1.0 7931:1.0 7932:1.0 7933:1.0 7934:1.0 7935:1.0 7936:1.0 7937:1.0 7938:1.0 7939:1.0 7940:1.0 7941:1.0 7942:1.0 7943:1.0 7944:1.0 7945:1.0 7946:1.0 7947:1.0 7948:1.0 7949:1.0 7950:1.0 7951:1.0 7952:1.0 7953:1.0 7954:1.0 7955:1.0 7956:1.0 7957:1.0 7958:1.0 7959:1.0 7960:1.0 7961:1.0 7962:1.0 7963:1.0 7964:1.0 7965:1.0 7966:1.0 7967:1.0 7968:1.0 7969:1.0 7970:1.0 7971:1.0 7972:1.0 7973:1.0 7974:1.0 7975:1.0 7976:1.0 7977:1.0 7978:1.0 7979:1.0 7980:1.0 7981:1.0 7982:1.0 7983:1.0 7984:1.0 7985:1.0 7986:1.0 7987:1.0 7988:1.0 7989:1.0 7990:1.0 7991:1.0 7992:1.0 7993:1.0 7994:1.0 7995:1.0 7996:1.0 7997:1.0 7998:1.0 7999:1.0 8000:1.0 8001:1.0 8002:1.0 8003:1.0 8004:2.0 8005:1.0 8006:1.0 8007:1.0 8008:1.0 8009:1.0 8010:1.0 8011:1.0 8012:1.0 8013:1.0 8014:1.0 8015:1.0 8016:1.0 8017:1.0 8018:1.0 8019:1.0 8020:1.0 8021:1.0 8022:1.0 8023:1.0 8024:3.0 8025:1.0 8026:2.0 8027:1.0 8028:1.0 8029:1.0 8030:1.0 8031:1.0 8032:1.0 8033:1.0 8034:1.0 8035:1.0 8036:1.0 8037:1.0 8038:1.0 8039:1.0 8040:1.0 8041:1.0 8042:1.0 8043:1.0 8044:1.0 8045:1.0 8046:1.0 8047:1.0 8048:1.0 8049:1.0 8050:1.0 8051:1.0 8052:1.0 8053:1.0 8054:1.0 8055:1.0 8056:1.0 8057:1.0 8058:1.0 8059:1.0 8060:1.0 8061:1.0 8062:1.0 8063:1.0 8064:1.0 8065:2.0 8066:1.0 8067:1.0 8068:1.0 8069:1.0 8070:1.0 8071:1.0 8072:1.0 8073:1.0 8074:1.0 8075:1.0 8076:1.0 8077:1.0 8078:1.0 8079:1.0 8080:1.0 8081:1.0 8082:1.0 8083:1.0 8084:1.0 8085:1.0 8086:1.0 8087:1.0 8088:1.0 8089:1.0 8090:1.0 8091:1.0 8092:1.0 8093:1.0 8094:1.0 8095:1.0 8096:1.0 8097:1.0 8098:1.0 8099:1.0 8100:2.0 8101:1.0 8102:1.0 8103:1.0 8104:2.0 8105:1.0 8106:1.0 8107:1.0 
0.001498294840385036 4:1.0 10:25.0 29:1.0 35:9.0 69:24.0 172:12.0 173:1.0 175:12.0 176:3.0 194:1.0 196:1.0 244:11.0 245:1.0 250:9.0 251:2.0 252:1.0 253:2.0 289:4.0 290:1.0 328:3.0 329:1.0 398:1.0 438:4.0 1348:1.0 1467:4.0 1484:2.0 1533:4.0 1534:2.0 1826:1.0 1827:1.0 1898:2.0 1906:1.0 1926:1.0 2171:1.0 2179:1.0 2283:1.0 4120:1.0 4250:3.0 4319:1.0 4320:1.0 4523:3.0 4536:1.0 4596:2.0 4701:1.0 5373:1.0 5553:2.0 6707:2.0 6715:3.0 6723:1.0 6736:1.0 6750:1.0 6751:1.0 6802:1.0 6803:1.0 6838:2.0 6991:1.0 7002:2.0 7003:1.0 7020:2.0 7032:2.0 7054:1.0 7068:1.0 7097:1.0 7229:1.0 7333:1.0 7404:1.0 7405:1.0 7508:2.0 7519:1.0 7538:1.0 7564:1.0 7593:1.0 7723:1.0 8075:1.0 8108:1.0 8109:2.0 8110:1.0 8111:1.0 8112:1.0 8113:2.0 8114:1.0 8115:1.0 8116:1.0 8117:1.0 8118:2.0 8119:3.0 8120:1.0 8121:2.0 8122:1.0 8123:1.0 8124:1.0 8125:1.0 8126:1.0 8127:1.0 8128:1.0 8129:1.0 8130:1.0 8131:1.0 8132:1.0 8133:1.0 8134:1.0 8135:1.0 8136:1.0 8137:1.0 8138:1.0 8139:1.0 8140:1.0 8141:1.0 8142:1.0 8143:1.0 8144:1.0 8145:1.0 8146:1.0 8147:1.0 8148:1.0 8149:1.0 8150:1.0 8151:1.0 8152:1.0 8153:1.0 8154:1.0 8155:1.0 8156:1.0 8157:1.0 8158:1.0 8159:1.0 8160:1.0 8161:1.0 8162:1.0 8163:1.0 8164:1.0 8165:1.0 8166:1.0 8167:1.0 8168:1.0 8169:1.0 8170:1.0 8171:1.0 8172:1.0 8173:1.0 8174:1.0 8175:1.0 8176:1.0 8177:1.0 8178:1.0 8179:1.0 8180:1.0 8181:1.0 8182:1.0 8183:1.0 8184:1.0 8185:1.0 8186:1.0 8187:1.0 8188:1.0 8189:1.0 8190:1.0 8191:1.0 8192:2.0 8193:1.0 8194:1.0 8195:1.0 8196:1.0 8197:1.0 8198:1.0 8199:1.0 
0.004558048828736554 4:1.0 10:25.0 25:1.0 29:1.0 35:7.0 69:24.0 103:3.0 117:1.0 149:2.0 172:24.0 173:2.0 175:12.0 176:3.0 194:2.0 196:1.0 209:1.0 237:1.0 244:21.0 245:2.0 246:1.0 250:10.0 251:1.0 252:1.0 253:2.0 277:1.0 289:4.0 290:1.0 328:2.0 329:1.0 341:1.0 353:1.0 503:1.0 571:1.0 870:3.0 1829:1.0 1898:2.0 1906:1.0 1926:1.0 2010:3.0 2011:1.0 2021:1.0 2051:1.0 2053:2.0 2179:1.0 2195:1.0 2256:1.0 2257:1.0 2283:1.0 2622:1.0 2727:1.0 3956:1.0 4462:2.0 4470:1.0 4482:1.0 4791:1.0 4803:1.0 4821:1.0 4847:1.0 5170:1.0 5768:1.0 5771:1.0 5775:1.0 6707:2.0 6723:1.0 6750:1.0 6751:1.0 6781:1.0 6802:1.0 6803:1.0 7003:1.0 7593:1.0 7637:1.0 7669:1.0 7723:1.0 7748:1.0 7840:1.0 8108:1.0 8113:2.0 8114:1.0 8115:1.0 8116:1.0 8126:1.0 8177:1.0 8179:1.0 8180:1.0 8201:1.0 8204:3.0 8258:1.0 8369:1.0 8438:3.0 8439:1.0 8440:1.0 8441:1.0 8442:2.0 8443:1.0 8444:1.0 8445:1.0 8446:1.0 8447:1.0 8448:1.0 8449:1.0 8450:1.0 8451:1.0 8452:1.0 8453:1.0 8454:1.0 8455:1.0 8456:1.0 8457:1.0 8458:1.0 8459:1.0 8460:1.0 8461:1.0 8462:1.0 8463:1.0 8464:1.0 8465:1.0 8466:1.0 8467:1.0 8468:1.0 8469:1.0 8470:1.0 8471:1.0 8472:1.0 8473:1.0 8474:1.0 8475:1.0 8476:1.0 8477:1.0 8478:1.0 8479:1.0 8480:1.0 8481:1.0 8482:1.0 8483:1.0 8484:1.0 8485:2.0 8486:1.0 8487:1.0 8488:1.0 8489:1.0 8490:1.0 8491:1.0 8492:1.0 8493:1.0 8494:1.0 8495:1.0 8496:2.0 8497:1.0 8498:1.0 8499:1.0 8500:1.0 8501:1.0 8502:1.0 8503:1.0 8504:1.0 
0.003220566662448493 4:1.0 35:1.0 172:24.0 173:2.0 175:12.0 176:3.0 194:2.0 196:1.0 244:20.0 245:2.0 246:2.0 250:10.0 251:2.0 252:1.0 253:1.0 287:3.0 325:2.0 341:1.0 353:1.0 398:3.0 405:1.0 1288:1.0 1326:3.0 1348:2.0 2330:2.0 2331:1.0 2376:1.0 2377:1.0 2458:1.0 4737:4.0 4744:2.0 4765:2.0 7130:1.0 7282:1.0 8203:1.0 8506:2.0 8673:1.0 8674:1.0 8675:1.0 8676:2.0 8677:1.0 8678:2.0 8679:1.0 8680:2.0 8681:1.0 8682:1.0 8683:1.0 8684:1.0 8685:1.0 8686:1.0 8687:1.0 8688:1.0 8689:1.0 8690:1.0 8691:1.0 8692:1.0 8693:1.0 8694:1.0 8695:1.0 8696:1.0 8697:1.0 8698:1.0 8699:1.0 8700:1.0 8701:1.0 8702:1.0 8703:1.0 8704:1.0 8705:1.0 8706:1.0 8707:1.0 8708:1.0 8709:1.0 8710:1.0 8711:1.0 8712:1.0 8713:1.0 8714:1.0 8715:1.0 8716:1.0 8717:1.0 8718:1.0 8719:1.0 8720:1.0 8721:2.0 8722:1.0 8723:1.0 8724:1.0 8725:1.0 8726:1.0 8727:1.0 8728:1.0 8729:1.0 8730:1.0 8731:1.0 8732:1.0 8733:1.0 8734:1.0 8735:1.0 8736:1.0 8737:1.0 8738:1.0 8739:1.0 8740:1.0 
0.0036033849673471714 4:3.0 8:1.0 10:1.0 15:4.0 25:1.0 35:20.0 107:3.0 120:1.0 154:2.0 167:1.0 169:1.0 172:12.0 173:1.0 175:24.0 176:6.0 184:1.0 189:1.0 194:1.0 196:2.0 202:1.0 207:1.0 225:1.0 244:11.0 246:1.0 250:20.0 251:3.0 252:3.0 253:2.0 275:1.0 276:1.0 284:2.0 297:1.0 307:1.0 319:1.0 341:4.0 343:2.0 353:4.0 355:1.0 390:1.0 435:1.0 436:3.0 438:4.0 447:3.0 480:1.0 481:1.0 484:3.0 571:1.0 582:1.0 662:1.0 757:1.0 761:1.0 773:2.0 820:1.0 859:12.0 860:1.0 869:1.0 870:1.0 875:3.0 879:1.0 889:1.0 893:1.0 928:1.0 936:10.0 937:1.0 938:1.0 939:1.0 958:1.0 961:1.0 972:2.0 997:2.0 1019:1.0 1092:2.0 1094:1.0 1116:1.0 1136:1.0 1237:2.0 1238:1.0 1298:1.0 1316:1.0 1447:3.0 1449:1.0 1478:1.0 1488:1.0 1613:12.0 1614:12.0 1615:1.0 1621:1.0 1654:10.0 1658:11.0 1659:1.0 1660:1.0 1661:1.0 1875:2.0 1877:2.0 1878:2.0 1880:2.0 1891:1.0 1892:1.0 1897:2.0 1898:9.0 1905:1.0 1906:3.0 1924:1.0 1926:5.0 1942:1.0 2011:1.0 2068:1.0 2080:1.0 2085:1.0 2099:1.0 2171:1.0 2309:1.0 2403:1.0 2476:1.0 2499:1.0 2968:2.0 2969:1.0 2995:1.0 3084:1.0 3305:1.0 3387:1.0 3648:2.0 3654:1.0 3677:1.0 3742:2.0 3743:4.0 3748:2.0 3770:1.0 3771:2.0 3941:1.0 4053:1.0 4054:1.0 4069:1.0 4259:2.0 4276:1.0 4316:1.0 4354:1.0 4365:1.0 4387:1.0 4410:1.0 4662:1.0 4689:1.0 5272:1.0 5274:2.0 5294:2.0 5389:2.0 5594:1.0 5617:1.0 5697:1.0 6060:1.0 6420:1.0 6471:1.0 6475:1.0 6707:2.0 6723:1.0 6735:1.0 6784:1.0 6803:1.0 6835:1.0 6978:1.0 6979:1.0 6980:2.0 6981:2.0 6982:1.0 6983:1.0 7034:1.0 7035:1.0 7041:1.0 7042:1.0 7094:1.0 7095:2.0 7100:1.0 7224:1.0 7263:1.0 7264:1.0 7265:1.0 7267:1.0 7268:1.0 7269:1.0 7270:1.0 7397:1.0 7537:1.0 7609:1.0 7610:3.0 7618:2.0 7621:2.0 7622:2.0 7629:1.0 7640:1.0 7650:1.0 7652:1.0 7659:1.0 7660:1.0 7665:1.0 7666:1.0 7708:1.0 7712:1.0 7723:1.0 7728:1.0 7740:1.0 7741:1.0 7742:1.0 7743:1.0 7755:2.0 7802:1.0 7803:2.0 7826:1.0 7834:1.0 7850:1.0 7874:1.0 7907:1.0 7947:1.0 8322:1.0 8323:1.0 8379:1.0 8510:1.0 8621:1.0 8623:1.0 8761:1.0 8827:1.0 8828:1.0 8829:2.0 8830:2.0 8831:2.0 8832:2.0 8833:3.0 8834:1.0 8835:5.0 8836:2.0 8837:3.0 8838:1.0 8839:2.0 8840:1.0 8841:1.0 8842:1.0 8843:3.0 8844:1.0 8845:2.0 8846:1.0 8847:1.0 8848:1.0 8849:1.0 8850:1.0 8851:1.0 8852:1.0 8853:1.0 8854:1.0 8855:1.0 8856:1.0 8857:1.0 8858:1.0 8859:1.0 8860:1.0 8861:1.0 8862:1.0 8863:1.0 8864:1.0 8865:1.0 8866:1.0 8867:1.0 8868:1.0 8869:1.0 8870:1.0 8871:1.0 8872:1.0 8873:1.0 8874:1.0 8875:1.0 8876:1.0 8877:1.0 8878:1.0 8879:1.0 8880:1.0 8881:1.0 8882:1.0 8883:1.0 8884:1.0 8885:1.0 8886:1.0 8887:1.0 8888:1.0 8889:1.0 8890:1.0 8891:1.0 8892:1.0 8893:1.0 8894:1.0 8895:1.0 8896:1.0 8897:1.0 8898:1.0 8899:1.0 8900:1.0 8901:1.0 8902:1.0 8903:1.0 8904:1.0 8905:1.0 8906:1.0 8907:1.0 8908:1.0 8909:1.0 8910:1.0 8911:1.0 8912:1.0 8913:1.0 8914:1.0 8915:1.0 8916:1.0 8917:1.0 8918:1.0 8919:1.0 8920:1.0 8921:1.0 8922:1.0 8923:1.0 8924:1.0 8925:1.0 8926:1.0 8927:1.0 8928:1.0 8929:1.0 8930:1.0 8931:1.0 8932:1.0 8933:1.0 8934:1.0 8935:1.0 8936:1.0 8937:1.0 8938:1.0 8939:1.0 8940:1.0 8941:1.0 8942:1.0 8943:1.0 8944:1.0 8945:1.0 8946:1.0 8947:1.0 8948:1.0 8949:1.0 8950:1.0 8951:1.0 8952:1.0 8953:1.0 8954:1.0 8955:1.0 8956:1.0 8957:1.0 8958:1.0 8959:1.0 8960:1.0 8961:1.0 8962:1.0 8963:1.0 8964:1.0 8965:1.0 8966:1.0 8967:1.0 8968:1.0 8969:1.0 8970:1.0 8971:1.0 8972:1.0 8973:1.0 8974:1.0 8975:1.0 8976:1.0 8977:2.0 8978:1.0 8979:1.0 8980:1.0 8981:1.0 8982:1.0 8983:1.0 8984:1.0 8985:3.0 8986:1.0 8987:1.0 8988:1.0 8989:1.0 8990:1.0 8991:1.0 8992:1.0 8993:1.0 8994:1.0 8995:1.0 8996:1.0 8997:1.0 8998:1.0 8999:1.0 9000:1.0 9001:1.0 9002:1.0 9003:1.0 9004:1.0 9005:1.0 9006:1.0 9007:1.0 9008:1.0 9009:1.0 9010:1.0 9011:1.0 9012:1.0 9013:1.0 9014:1.0 9015:1.0 9016:1.0 9017:1.0 9018:1.0 9019:2.0 9020:1.0 9021:1.0 9022:1.0 9023:1.0 9024:1.0 9025:1.0 9026:1.0 9027:1.0 
0.0019479028306400958 4:1.0 8:1.0 10:1.0 35:10.0 103:3.0 117:1.0 149:2.0 167:1.0 169:1.0 172:12.0 173:1.0 175:12.0 176:3.0 194:1.0 196:1.0 244:10.0 245:1.0 246:1.0 250:11.0 251:1.0 252:2.0 285:3.0 289:4.0 290:1.0 321:2.0 328:2.0 329:1.0 341:1.0 353:1.0 432:1.0 503:1.0 514:2.0 562:1.0 820:3.0 823:1.0 841:2.0 869:1.0 985:1.0 1116:1.0 1288:1.0 1298:1.0 1331:2.0 1401:1.0 1447:1.0 1471:2.0 1488:1.0 1543:1.0 1562:1.0 1728:2.0 1874:1.0 1875:1.0 1877:2.0 1878:2.0 1880:1.0 1891:1.0 1893:2.0 1898:3.0 1926:2.0 2015:2.0 2063:1.0 2085:1.0 2283:1.0 2391:1.0 2809:1.0 3648:2.0 3654:1.0 3677:1.0 3922:1.0 3953:1.0 4054:1.0 4081:1.0 5057:1.0 5122:1.0 5152:3.0 5164:1.0 5227:2.0 6177:1.0 6975:2.0 7007:1.0 7008:1.0 7034:1.0 7039:1.0 7048:1.0 7072:1.0 7094:1.0 7095:1.0 7100:1.0 7223:1.0 7235:1.0 7254:1.0 7341:1.0 7947:1.0 8113:2.0 8114:1.0 8115:1.0 8116:1.0 8126:1.0 8177:1.0 8178:1.0 8180:1.0 8483:1.0 8848:1.0 8900:1.0 8983:1.0 9029:2.0 9043:1.0 9044:1.0 9064:1.0 9114:1.0 9160:1.0 9161:1.0 9162:1.0 9163:2.0 9164:2.0 9165:1.0 9166:5.0 9167:1.0 9168:1.0 9169:2.0 9170:3.0 9171:1.0 9172:1.0 9173:1.0 9174:1.0 9175:1.0 9176:1.0 9177:1.0 9178:1.0 9179:1.0 9180:1.0 9181:1.0 9182:1.0 9183:1.0 9184:1.0 9185:1.0 9186:1.0 9187:1.0 9188:1.0 9189:1.0 9190:1.0 9191:1.0 9192:1.0 9193:1.0 9194:1.0 9195:1.0 9196:1.0 9197:1.0 9198:1.0 9199:1.0 9200:1.0 9201:1.0 9202:1.0 9203:1.0 9204:1.0 9205:1.0 9206:1.0 9207:1.0 9208:1.0 9209:1.0 9210:1.0 9211:1.0 9212:1.0 9213:1.0 9214:1.0 9215:1.0 9216:1.0 9217:1.0 9218:1.0 9219:1.0 9220:1.0 9221:1.0 9222:1.0 9223:1.0 9224:1.0 9225:1.0 9226:1.0 9227:1.0 9228:1.0 9229:1.0 9230:1.0 9231:1.0 9232:1.0 9233:1.0 9234:1.0 9235:1.0 9236:1.0 9237:1.0 9238:4.0 9239:1.0 9240:1.0 9241:1.0 9242:1.0 9243:1.0 9244:1.0 9245:1.0 9246:1.0 9247:1.0 9248:2.0 9249:1.0 9250:1.0 9251:1.0 9252:1.0 9253:1.0 9254:1.0 9255:1.0 9256:1.0 9257:1.0 9258:1.0 9259:1.0 9260:1.0 9261:1.0 9262:1.0 9263:1.0 9264:1.0 9265:1.0 9266:1.0 
0.0041902232787739005 4:1.0 14:1.0 34:1.0 35:3.0 107:3.0 120:1.0 136:1.0 154:2.0 155:1.0 167:1.0 169:1.0 170:1.0 179:1.0 275:1.0 289:4.0 290:1.0 328:3.0 329:1.0 506:1.0 702:1.0 703:1.0 704:2.0 714:1.0 735:1.0 1013:1.0 1044:1.0 1328:2.0 1332:1.0 1333:1.0 1334:1.0 1340:1.0 1344:1.0 1373:1.0 1875:1.0 1880:1.0 2283:1.0 2365:1.0 2366:1.0 3918:4.0 3919:2.0 3920:3.0 3921:1.0 3923:1.0 3937:2.0 3938:1.0 3945:1.0 3994:1.0 4030:1.0 4661:1.0 4686:1.0 5146:4.0 5206:3.0 5285:1.0 6717:1.0 6858:1.0 7034:1.0 7094:1.0 7100:1.0 7223:1.0 7235:1.0 8366:1.0 9666:3.0 9667:1.0 9668:1.0 9669:1.0 9670:1.0 9671:1.0 9672:1.0 9673:1.0 9674:1.0 9675:1.0 9676:1.0 9677:1.0 9678:1.0 9679:1.0 9680:1.0 9681:1.0 9682:1.0 9683:1.0 9684:1.0 9685:1.0 9686:1.0 9687:1.0 9688:1.0 9689:1.0 9690:1.0 9691:1.0 9692:1.0 9693:1.0 9694:1.0 9695:1.0 9696:1.0 9697:1.0 9698:2.0 9699:1.0 9700:2.0 9701:1.0 9702:1.0 9703:1.0 9704:1.0 9705:1.0 9706:1.0 9707:1.0 9708:1.0 9709:1.0 9710:1.0 9711:1.0 9712:1.0 9713:1.0 
0.007351912523692733 4:1.0 22:1.0 35:1.0 435:3.0 436:2.0 453:1.0 479:1.0 480:1.0 481:1.0 2441:3.0 2452:1.0 2491:2.0 3941:1.0 5146:4.0 5206:3.0 5285:1.0 9033:1.0 9749:1.0 9752:1.0 9759:1.0 9814:3.0 9815:3.0 9816:1.0 9817:1.0 9818:1.0 9819:1.0 9820:1.0 9821:1.0 9822:1.0 9823:1.0 9824:1.0 9825:1.0 9826:1.0 9827:1.0 9828:1.0 9829:1.0 9830:1.0 9831:1.0 9832:1.0 9833:1.0 9834:2.0 9835:1.0 9836:2.0 
0.007396160462696855 4:1.0 35:2.0 180:1.0 181:1.0 184:1.0 200:1.0 202:1.0 262:1.0 438:2.0 872:1.0 873:1.0 891:1.0 1467:2.0 1484:1.0 1533:1.0 1534:2.0 3958:1.0 3966:1.0 5534:1.0 5543:1.0 5553:1.0 5768:1.0 6705:1.0 7926:1.0 9058:1.0 9800:1.0 9837:1.0 9838:1.0 9839:1.0 9840:1.0 9841:1.0 9842:1.0 9843:1.0 9844:1.0 9845:1.0 9846:1.0 9847:1.0 9848:1.0 9849:1.0 9850:1.0 9851:1.0 9852:1.0 
0.0022239309673346185 4:1.0 35:4.0 167:1.0 339:5.0 350:1.0 363:1.0 383:4.0 435:3.0 436:2.0 453:1.0 479:2.0 481:1.0 702:1.0 703:1.0 704:2.0 714:1.0 735:1.0 1471:1.0 1580:5.0 1585:1.0 1607:4.0 1691:2.0 1696:1.0 1706:1.0 1829:1.0 1900:2.0 1929:1.0 2965:2.0 3191:1.0 3941:1.0 4030:1.0 4046:1.0 4259:2.0 4276:1.0 4354:1.0 4649:1.0 4663:1.0 4976:1.0 4993:1.0 6049:1.0 7004:1.0 7005:2.0 7069:1.0 7336:1.0 7337:1.0 9717:1.0 9856:1.0 9857:1.0 9865:1.0 9899:1.0 9977:1.0 9978:1.0 9979:1.0 9980:1.0 9981:1.0 9982:1.0 9983:1.0 9984:1.0 9985:1.0 9986:1.0 9987:1.0 9988:1.0 9989:1.0 9990:1.0 9991:1.0 9992:1.0 9993:1.0 9994:1.0 9995:1.0 9996:1.0 9997:1.0 9998:1.0 9999:1.0 10000:1.0 10001:1.0 10002:1.0 10003:1.0 10004:1.0 10005:1.0 10006:1.0 10007:1.0 10008:1.0 10009:1.0 10010:1.0 10011:1.0 10012:1.0 10013:1.0 10014:1.0 10015:1.0 10016:1.0 10017:1.0 10018:1.0 10019:1.0 10020:1.0 10021:1.0 10022:1.0 10023:1.0 10024:1.0 10025:1.0 10026:1.0 10027:1.0 10028:1.0 10029:1.0 10030:1.0 10031:1.0 
2.5740562933242417E-4 4:1.0 10:2.0 35:1.0 69:1.0 103:3.0 117:1.0 123:2.0 149:2.0 167:1.0 172:12.0 173:2.0 175:12.0 176:3.0 194:1.0 196:1.0 244:10.0 245:1.0 246:1.0 250:11.0 251:1.0 252:2.0 276:1.0 284:2.0 297:1.0 307:1.0 319:1.0 345:1.0 447:3.0 506:1.0 702:1.0 1092:2.0 1239:1.0 1331:2.0 1470:24.0 1471:2.0 1486:1.0 1540:20.0 1541:2.0 1542:1.0 1543:1.0 1545:2.0 1727:1.0 1779:1.0 1875:1.0 1880:1.0 1895:2.0 1901:3.0 1921:1.0 2076:1.0 2194:1.0 2253:2.0 2423:1.0 2425:1.0 3957:2.0 3997:1.0 4268:1.0 4958:1.0 4996:1.0 5146:6.0 5147:1.0 5156:1.0 5206:5.0 5208:1.0 5795:1.0 5807:1.0 5826:1.0 6529:1.0 6530:1.0 6578:1.0 9267:1.0 9924:1.0 9978:1.0 9986:1.0 10034:1.0 10375:2.0 10376:1.0 10377:6.0 10378:1.0 10379:1.0 10380:1.0 10381:1.0 10382:1.0 10383:1.0 10384:1.0 10385:1.0 10386:1.0 10387:1.0 10388:1.0 10389:1.0 10390:1.0 10391:1.0 10392:1.0 10393:1.0 10394:1.0 10395:1.0 10396:1.0 10397:1.0 10398:1.0 10399:1.0 10400:1.0 10401:1.0 10402:1.0 10403:1.0 10404:1.0 10405:1.0 10406:1.0 10407:1.0 10408:1.0 10409:1.0 10410:1.0 10411:1.0 10412:1.0 10413:1.0 10414:1.0 10415:1.0 10416:1.0 10417:1.0 10418:1.0 10419:1.0 10420:1.0 10421:1.0 10422:1.0 10423:1.0 10424:5.0 10425:1.0 10426:1.0 10427:1.0 10428:1.0 10429:1.0 10430:1.0 10431:1.0 10432:1.0 
0.008189395800731738 4:1.0 8:1.0 10:3.0 35:6.0 69:1.0 103:3.0 117:1.0 149:2.0 172:12.0 173:1.0 179:1.0 194:1.0 244:10.0 245:1.0 246:1.0 277:1.0 284:2.0 297:1.0 307:1.0 319:1.0 339:10.0 341:1.0 342:1.0 350:2.0 353:1.0 363:1.0 383:8.0 506:1.0 517:3.0 518:2.0 519:2.0 521:1.0 548:1.0 703:1.0 704:2.0 714:1.0 734:1.0 735:1.0 819:2.0 820:3.0 822:1.0 838:1.0 841:2.0 869:1.0 870:2.0 999:1.0 1013:1.0 1116:1.0 1301:1.0 1302:1.0 1307:1.0 1331:2.0 1447:2.0 1449:1.0 1470:24.0 1471:2.0 1477:1.0 1486:1.0 1540:21.0 1541:2.0 1542:1.0 1543:1.0 1545:1.0 1610:2.0 1618:1.0 1642:2.0 1643:1.0 1646:1.0 1726:1.0 1727:1.0 1779:1.0 1875:2.0 1880:2.0 1900:4.0 1929:3.0 2016:2.0 2179:1.0 2195:1.0 2218:1.0 2255:1.0 2256:1.0 2257:1.0 2442:2.0 2781:1.0 2808:1.0 2837:1.0 2839:1.0 3238:1.0 3476:1.0 3958:1.0 4148:1.0 5327:1.0 5569:1.0 6127:1.0 6128:1.0 6130:1.0 6168:1.0 6169:2.0 6178:1.0 6218:1.0 6220:1.0 6781:1.0 6858:1.0 7034:6.0 7100:1.0 7643:1.0 7645:1.0 7677:1.0 7684:1.0 7770:4.0 7775:1.0 7978:1.0 9068:1.0 9611:1.0 9616:1.0 9667:3.0 10379:1.0 10433:1.0 10434:2.0 10435:3.0 10436:1.0 10437:5.0 10438:1.0 10439:1.0 10440:1.0 10441:1.0 10442:1.0 10443:1.0 10444:1.0 10445:1.0 10446:1.0 10447:1.0 10448:1.0 10449:1.0 10450:1.0 10451:1.0 10452:1.0 10453:1.0 10454:1.0 10455:1.0 10456:1.0 10457:1.0 10458:1.0 10459:1.0 10460:1.0 10461:1.0 10462:1.0 10463:1.0 10464:1.0 10465:1.0 10466:1.0 10467:1.0 10468:1.0 10469:1.0 10470:1.0 10471:1.0 10472:1.0 10473:1.0 10474:1.0 10475:1.0 10476:1.0 10477:1.0 10478:1.0 10479:1.0 10480:1.0 10481:1.0 10482:1.0 10483:1.0 10484:1.0 10485:1.0 10486:1.0 10487:1.0 10488:1.0 10489:1.0 10490:2.0 10491:1.0 10492:1.0 10493:1.0 10494:1.0 10495:1.0 10496:1.0 10497:1.0 10498:1.0 10499:1.0 10500:3.0 10501:1.0 10502:1.0 10503:1.0 10504:1.0 10505:1.0 10506:1.0 10507:1.0 10508:1.0 10509:1.0 10510:1.0 10511:1.0 10512:1.0 10513:1.0 10514:1.0 10515:1.0 10516:1.0 10517:1.0 10518:1.0 10519:1.0 10520:1.0 10521:2.0 
0.0015227954389601147 4:1.0 10:3.0 16:2.0 35:2.0 69:1.0 78:1.0 167:1.0 172:12.0 173:1.0 175:24.0 176:6.0 194:1.0 196:2.0 244:10.0 245:1.0 246:1.0 250:20.0 251:4.0 252:2.0 253:2.0 341:1.0 353:1.0 447:2.0 757:1.0 859:12.0 860:1.0 868:2.0 879:1.0 887:1.0 936:10.0 956:1.0 1092:1.0 1116:1.0 1181:2.0 1216:1.0 1482:1.0 1498:1.0 2423:3.0 2427:1.0 2436:2.0 2437:1.0 2444:1.0 2446:1.0 2447:3.0 2459:1.0 2481:1.0 2500:1.0 2504:2.0 3312:1.0 3313:1.0 3314:1.0 5462:1.0 6293:1.0 7143:1.0 8761:1.0 9783:3.0 9813:2.0 9854:6.0 9862:1.0 9863:1.0 9871:1.0 9872:1.0 9890:5.0 9891:1.0 10195:3.0 10214:2.0 10219:1.0 10350:1.0 10562:1.0 10563:1.0 10564:1.0 10565:1.0 10566:1.0 10567:1.0 10568:1.0 10569:1.0 10570:1.0 10571:1.0 10572:1.0 10573:1.0 10574:1.0 10575:1.0 10576:1.0 10577:1.0 10578:1.0 10579:1.0 10580:1.0 10581:1.0 10582:1.0 10583:1.0 10584:1.0 10585:1.0 10586:1.0 10587:1.0 10588:1.0 10589:1.0 10590:1.0 10591:1.0 10592:1.0 10593:1.0 10594:1.0 10595:1.0 10596:1.0 10597:1.0 10598:1.0 10599:1.0 10600:1.0 10601:1.0 10602:1.0 10603:1.0 10604:1.0 10605:1.0 10606:1.0 10607:1.0 10608:1.0 10609:1.0 10610:1.0 10611:1.0 10612:1.0 10613:1.0 10614:1.0 10615:1.0 10616:1.0 10617:1.0 10618:1.0 10619:1.0 10620:1.0 
0.0031187136814601196 4:1.0 15:1.0 16:3.0 35:3.0 78:2.0 166:1.0 167:1.0 275:1.0 276:1.0 284:2.0 297:1.0 307:1.0 319:1.0 339:5.0 350:1.0 363:1.0 383:4.0 438:3.0 484:1.0 703:2.0 704:4.0 714:1.0 735:2.0 753:5.0 757:3.0 760:1.0 762:1.0 766:1.0 783:1.0 785:4.0 793:2.0 870:2.0 1396:2.0 1415:1.0 1478:1.0 1800:1.0 1942:1.0 2068:1.0 2080:1.0 2122:1.0 2179:1.0 2195:1.0 2256:1.0 2423:3.0 2427:1.0 2436:2.0 2821:2.0 2835:1.0 2881:1.0 3688:1.0 3999:1.0 4030:2.0 4255:6.0 4271:1.0 4340:5.0 4341:1.0 4342:1.0 4343:1.0 4869:1.0 4878:1.0 4892:1.0 5770:1.0 6051:1.0 6588:1.0 7665:1.0 9717:2.0 9722:1.0 9744:1.0 9856:1.0 9899:1.0 9980:2.0 10216:3.0 10565:1.0 10632:1.0 10680:2.0 10838:2.0 10839:1.0 10840:1.0 10841:2.0 10842:1.0 10843:1.0 10844:1.0 10845:1.0 10846:1.0 10847:1.0 10848:1.0 10849:1.0 10850:1.0 10851:1.0 10852:1.0 10853:1.0 10854:1.0 10855:1.0 10856:1.0 10857:1.0 10858:1.0 10859:1.0 10860:1.0 10861:1.0 10862:1.0 10863:1.0 10864:1.0 10865:1.0 10866:1.0 10867:1.0 10868:1.0 10869:1.0 10870:1.0 10871:1.0 10872:1.0 10873:1.0 10874:1.0 10875:1.0 10876:1.0 10877:1.0 10878:1.0 10879:1.0 10880:1.0 10881:1.0 10882:1.0 10883:1.0 10884:1.0 10885:1.0 10886:1.0 10887:1.0 10888:1.0 10889:1.0 10890:1.0 10891:1.0 10892:1.0 10893:1.0 
0.022368356731530824 4:1.0 13:3.0 33:1.0 35:1.0 74:2.0 167:1.0 175:12.0 176:3.0 196:1.0 250:11.0 251:1.0 252:2.0 275:1.0 702:1.0 1474:1.0 1475:1.0 1478:1.0 1490:1.0 2011:1.0 2443:1.0 2454:1.0 4078:1.0 4084:1.0 4115:1.0 5146:2.0 5206:1.0 6788:1.0 6988:2.0 7082:1.0 7365:1.0 7665:1.0 9421:1.0 9749:1.0 9752:1.0 9982:1.0 10064:1.0 10894:1.0 10895:1.0 10896:1.0 10897:1.0 10898:1.0 10899:1.0 10900:1.0 10901:1.0 10902:1.0 10903:1.0 10904:1.0 10905:1.0 10906:1.0 10907:1.0 10908:1.0 10909:1.0 10910:1.0 10911:1.0 10912:1.0 10913:1.0 10914:1.0 10915:1.0 10916:1.0 10917:1.0 
0.007782291797940692 4:1.0 15:1.0 35:2.0 36:1.0 167:1.0 175:12.0 176:3.0 196:1.0 250:10.0 251:2.0 252:1.0 253:1.0 275:1.0 702:1.0 1331:1.0 1343:1.0 1474:1.0 1475:1.0 1478:1.0 1490:1.0 1552:1.0 2171:1.0 4259:2.0 4276:1.0 4354:1.0 5529:2.0 5567:1.0 5642:1.0 5689:1.0 6309:1.0 6707:2.0 6723:1.0 6803:1.0 7034:1.0 7071:1.0 7100:1.0 7235:1.0 7508:2.0 7519:1.0 7538:1.0 7563:1.0 7665:1.0 8075:1.0 10900:1.0 10919:1.0 10920:1.0 10927:1.0 10946:1.0 10974:1.0 10990:1.0 10991:3.0 10992:1.0 10993:1.0 10994:1.0 10995:1.0 10996:1.0 10997:1.0 10998:1.0 10999:1.0 11000:1.0 11001:1.0 11002:1.0 11003:1.0 11004:1.0 11005:1.0 11006:1.0 11007:1.0 11008:1.0 11009:1.0 11010:1.0 11011:1.0 11012:1.0 11013:1.0 11014:1.0 11015:1.0 11016:1.0 11017:1.0 11018:1.0 11019:1.0 11020:1.0 11021:1.0 11022:1.0 11023:1.0 11024:1.0 11025:1.0 
0.002569497939111692 4:1.0 35:1.0 167:1.0 175:12.0 176:3.0 196:1.0 250:11.0 251:1.0 252:2.0 275:1.0 276:1.0 284:2.0 297:1.0 307:1.0 319:1.0 341:1.0 353:1.0 450:1.0 1478:1.0 2437:1.0 3605:1.0 3779:1.0 3782:1.0 3795:1.0 7034:1.0 7413:1.0 7665:1.0 9963:1.0 9969:1.0 11026:1.0 11027:1.0 11028:1.0 11029:1.0 11030:1.0 11031:1.0 11032:1.0 11033:1.0 11034:1.0 11035:1.0 11036:1.0 11037:1.0 11038:1.0 11039:1.0 11040:1.0 11041:1.0 11042:1.0 11043:1.0 11044:1.0 11045:1.0 11046:1.0 11047:1.0 11048:1.0 11049:1.0 
0.004153510531449963 4:1.0 8:1.0 35:2.0 189:1.0 207:1.0 275:1.0 276:1.0 277:1.0 284:2.0 297:1.0 307:1.0 319:1.0 339:5.0 350:1.0 363:1.0 383:4.0 514:2.0 562:1.0 1331:2.0 1471:2.0 1477:1.0 1478:1.0 1492:1.0 1543:1.0 1544:1.0 1728:1.0 2171:1.0 2811:1.0 2812:1.0 2813:1.0 2825:1.0 2865:1.0 5122:1.0 6033:1.0 6177:1.0 6193:1.0 6216:1.0 6978:1.0 6979:1.0 6980:2.0 7041:1.0 7265:1.0 8846:1.0 9970:1.0 10186:1.0 11182:1.0 11183:1.0 11184:1.0 11185:1.0 11186:1.0 11187:1.0 11188:1.0 11189:1.0 11190:1.0 11191:1.0 11192:1.0 11193:1.0 11194:1.0 11195:1.0 11196:1.0 11197:1.0 11198:1.0 11199:1.0 11200:1.0 11201:1.0 11202:1.0 11203:1.0 11204:1.0 11205:1.0 11206:1.0 11207:1.0 11208:1.0 
0.0034720198090386865 4:1.0 10:25.0 13:1.0 15:1.0 29:1.0 35:4.0 69:24.0 103:3.0 117:1.0 149:2.0 175:12.0 176:3.0 196:1.0 250:10.0 251:2.0 252:1.0 253:1.0 275:1.0 339:15.0 350:3.0 363:3.0 383:12.0 438:3.0 484:1.0 753:5.0 762:1.0 784:1.0 785:4.0 1478:1.0 1875:1.0 1880:1.0 2014:1.0 2423:3.0 2427:1.0 2436:2.0 2509:2.0 4255:6.0 4271:1.0 4296:1.0 4340:5.0 4341:1.0 4342:1.0 5146:8.0 5206:7.0 6003:1.0 6851:1.0 6871:1.0 6913:1.0 6952:1.0 7665:1.0 9783:3.0 9813:2.0 10057:1.0 10173:1.0 10216:3.0 10563:2.0 10572:1.0 10610:1.0 10611:1.0 10632:1.0 10680:2.0 10919:1.0 10920:1.0 10927:1.0 10972:1.0 11296:1.0 11297:1.0 11298:1.0 11299:1.0 11300:1.0 11301:1.0 11302:1.0 11303:1.0 11304:1.0 11305:1.0 11306:1.0 11307:1.0 11308:1.0 11309:1.0 11310:1.0 11311:1.0 11312:1.0 11313:1.0 11314:1.0 11315:1.0 11316:1.0 11317:1.0 11318:1.0 11319:1.0 11320:1.0 11321:1.0 11322:1.0 11323:1.0 11324:1.0 11325:1.0 11326:1.0 11327:1.0 11328:1.0 11329:1.0 11330:1.0 11331:1.0 11332:1.0 11333:1.0 11334:1.0 11335:1.0 11336:1.0 11337:1.0 11338:1.0 11339:1.0 11340:1.0 11341:1.0 11342:1.0 
0.001181389903499648 4:1.0 15:1.0 35:8.0 175:12.0 176:3.0 196:1.0 250:11.0 252:2.0 253:1.0 276:1.0 284:2.0 319:1.0 339:20.0 341:2.0 350:4.0 353:2.0 363:3.0 383:16.0 438:2.0 447:5.0 484:1.0 539:1.0 557:1.0 860:1.0 875:3.0 893:1.0 928:1.0 961:1.0 972:2.0 1092:3.0 1467:2.0 1484:1.0 1533:1.0 1939:2.0 2072:1.0 2438:1.0 2450:1.0 2567:3.0 2602:2.0 3605:1.0 3779:1.0 3782:1.0 3788:1.0 3795:1.0 5274:1.0 5294:1.0 5389:1.0 5462:1.0 5529:2.0 5532:1.0 5553:1.0 5567:1.0 6060:1.0 7034:1.0 7071:1.0 7100:1.0 7197:1.0 7235:1.0 7368:1.0 7537:1.0 8855:1.0 9272:1.0 9653:1.0 9749:1.0 9752:1.0 9855:1.0 9856:1.0 9864:1.0 9879:1.0 9898:1.0 9899:1.0 10438:1.0 10445:1.0 10468:1.0 10469:1.0 10507:1.0 10930:1.0 10931:1.0 10955:1.0 10956:1.0 10957:1.0 10984:1.0 11426:5.0 11427:1.0 11428:1.0 11429:2.0 11430:1.0 11431:5.0 11432:1.0 11433:1.0 11434:2.0 11435:1.0 11436:1.0 11437:1.0 11438:1.0 11439:1.0 11440:1.0 11441:1.0 11442:1.0 11443:1.0 11444:1.0 11445:1.0 11446:1.0 11447:1.0 11448:1.0 11449:1.0 11450:1.0 11451:1.0 11452:1.0 11453:1.0 11454:1.0 11455:1.0 11456:1.0 11457:1.0 11458:1.0 11459:1.0 11460:1.0 11461:1.0 11462:1.0 11463:1.0 11464:1.0 11465:1.0 11466:1.0 11467:1.0 11468:1.0 11469:1.0 11470:1.0 11471:1.0 11472:1.0 11473:1.0 11474:1.0 11475:1.0 11476:1.0 11477:1.0 11478:1.0 11479:1.0 11480:1.0 11481:3.0 11482:1.0 11483:1.0 11484:1.0 11485:1.0 11486:1.0 11487:1.0 11488:1.0 11489:1.0 11490:1.0 11491:1.0 11492:4.0 11493:1.0 11494:1.0 11495:1.0 11496:1.0 
0.0026301277975271844 4:1.0 10:2.0 15:1.0 16:1.0 21:12.0 22:12.0 23:1.0 35:3.0 42:1.0 69:1.0 87:10.0 88:2.0 89:9.0 90:1.0 91:1.0 92:1.0 166:1.0 167:1.0 276:1.0 284:2.0 297:1.0 307:1.0 319:1.0 339:5.0 350:1.0 363:1.0 383:4.0 521:1.0 757:3.0 766:1.0 793:2.0 1014:1.0 1580:1.0 1942:1.0 2068:1.0 2080:1.0 2099:1.0 2122:1.0 2276:1.0 2282:1.0 2292:1.0 2304:1.0 3605:1.0 3779:1.0 3782:1.0 3788:1.0 3795:1.0 3796:1.0 3958:1.0 5529:2.0 5567:1.0 6033:1.0 6098:1.0 6103:1.0 7020:1.0 7021:1.0 7071:1.0 7081:1.0 7198:1.0 7363:1.0 7369:1.0 7370:1.0 7856:3.0 8441:1.0 8451:1.0 9270:3.0 9297:1.0 9335:1.0 9424:2.0 10195:1.0 10443:1.0 10841:3.0 10892:2.0 11183:1.0 11186:1.0 11197:1.0 11208:1.0 11696:1.0 11697:1.0 11698:1.0 11699:1.0 11700:1.0 11701:1.0 11702:1.0 11703:1.0 11704:1.0 11705:1.0 11706:1.0 11707:1.0 11708:1.0 11709:1.0 11710:1.0 11711:1.0 11712:1.0 11713:1.0 11714:1.0 11715:1.0 11716:1.0 11717:1.0 11718:1.0 11719:1.0 11720:1.0 11721:1.0 11722:1.0 11723:1.0 11724:1.0 11725:1.0 11726:1.0 11727:1.0 11728:1.0 11729:1.0 11730:1.0 11731:1.0 11732:1.0 11733:1.0 11734:2.0 11735:1.0 11736:1.0 11737:1.0 11738:1.0 11739:1.0 11740:1.0 11741:1.0 11742:1.0 11743:1.0 11744:1.0 11745:1.0 11746:1.0 11747:1.0 
0.001974826306869698 4:1.0 10:2.0 35:3.0 69:1.0 275:1.0 445:1.0 458:1.0 521:1.0 869:1.0 1298:1.0 1316:1.0 1488:1.0 1694:1.0 1695:1.0 1698:1.0 1713:1.0 1900:3.0 1929:2.0 2171:1.0 2773:1.0 4252:6.0 4329:5.0 5277:1.0 5299:1.0 6849:1.0 6850:1.0 6869:1.0 6948:1.0 7508:2.0 7519:1.0 7538:1.0 7564:1.0 7947:1.0 8075:1.0 9905:1.0 9909:1.0 9926:1.0 10283:2.0 10288:1.0 10309:1.0 11748:2.0 11749:3.0 11750:2.0 11751:1.0 11752:1.0 11753:1.0 11754:1.0 11755:1.0 11756:1.0 11757:1.0 11758:1.0 11759:1.0 11760:1.0 11761:1.0 11762:1.0 11763:1.0 11764:1.0 11765:1.0 11766:1.0 11767:1.0 11768:1.0 11769:1.0 11770:1.0 11771:1.0 11772:1.0 11773:1.0 11774:1.0 11775:1.0 11776:2.0 11777:1.0 11778:1.0 11779:1.0 11780:1.0 11781:1.0 11782:1.0 11783:1.0 11784:1.0 11785:1.0 11786:1.0 11787:1.0 11788:1.0 
0.002097126420200604 4:1.0 15:1.0 35:1.0 171:5.0 175:24.0 176:6.0 184:1.0 196:2.0 202:1.0 242:3.0 250:21.0 251:1.0 252:3.0 253:3.0 336:1.0 347:1.0 670:1.0 672:1.0 1875:1.0 3896:1.0 5272:1.0 5274:1.0 5294:1.0 5389:1.0 7639:1.0 7944:1.0 8043:1.0 8841:1.0 8862:1.0 9013:1.0 9845:1.0 12208:1.0 12229:1.0 12230:1.0 12231:2.0 12232:2.0 12233:1.0 12234:1.0 12235:1.0 12236:1.0 12237:1.0 12238:1.0 12239:1.0 12240:1.0 12241:1.0 12242:1.0 12243:1.0 12244:1.0 12245:1.0 12246:1.0 12247:1.0 12248:1.0 12249:1.0 12250:1.0 12251:1.0 12252:1.0 12253:1.0 12254:1.0 12255:1.0 12256:1.0 12257:1.0 12258:1.0 12259:1.0 12260:1.0 12261:1.0 12262:1.0 12263:1.0 12264:1.0 12265:1.0 
0.02952727381252236 4:1.0 32:2.0 167:1.0 209:1.0 703:1.0 704:2.0 734:1.0 735:1.0 752:1.0 760:1.0 1237:1.0 1244:1.0 1792:1.0 1796:1.0 1803:1.0 1901:3.0 2176:1.0 2194:1.0 2253:2.0 4370:1.0 4481:1.0 4963:1.0 5270:1.0 9291:3.0 12266:1.0 12267:1.0 12268:1.0 12269:1.0 12270:1.0 12271:1.0 12272:1.0 12273:1.0 12274:1.0 12275:1.0 12276:1.0 12277:1.0 12278:1.0 12279:1.0 12280:1.0 12281:1.0 12282:1.0 12283:1.0 12284:2.0 12285:1.0 12286:1.0 
0.009066379826149312 4:1.0 1402:1.0 2616:5.0 2639:1.0 2714:4.0 3539:1.0 3547:1.0 12391:1.0 12392:1.0 12393:1.0 12394:1.0 12395:1.0 12396:1.0 12397:1.0 12398:1.0 
0.0075209562949250484 4:1.0 172:12.0 173:25.0 244:10.0 245:2.0 246:1.0 341:1.0 353:1.0 803:1.0 814:23.0 5595:5.0 5699:4.0 5788:1.0 10092:1.0 12440:1.0 12455:3.0 12456:1.0 12457:1.0 12458:1.0 12459:1.0 12460:1.0 12461:1.0 12462:1.0 12463:1.0 12464:1.0 12465:1.0 12466:2.0 12467:1.0 12468:1.0 12469:1.0 12470:1.0 
6.262976853929422E-4 4:1.0 32:3.0 35:2.0 167:1.0 340:2.0 386:1.0 398:2.0 438:4.0 484:3.0 820:1.0 1238:1.0 1348:2.0 1401:1.0 1402:2.0 1613:12.0 1614:12.0 1615:1.0 1621:1.0 1654:10.0 1656:1.0 1657:1.0 1658:9.0 1659:1.0 1660:1.0 1662:1.0 1942:1.0 2068:1.0 2080:1.0 2099:1.0 2122:1.0 2646:1.0 2809:1.0 3104:1.0 3683:1.0 3684:4.0 3685:1.0 3686:2.0 3692:1.0 3714:2.0 3716:1.0 3717:1.0 3718:1.0 4364:1.0 4367:1.0 4387:1.0 4388:1.0 4413:1.0 4414:1.0 4733:1.0 4957:1.0 4984:1.0 5163:1.0 7734:1.0 12531:2.0 12532:4.0 12533:2.0 12534:1.0 12535:1.0 12536:1.0 12537:2.0 12538:2.0 12539:1.0 12540:1.0 12541:1.0 12542:1.0 12543:1.0 12544:1.0 12545:1.0 12546:1.0 12547:1.0 12548:1.0 12549:1.0 12550:1.0 12551:1.0 12552:1.0 12553:2.0 12554:2.0 12555:1.0 12556:1.0 12557:1.0 12558:1.0 12559:1.0 12560:1.0 12561:1.0 12562:1.0 12563:1.0 12564:1.0 12565:1.0 12566:1.0 12567:1.0 12568:1.0 12569:1.0 12570:2.0 12571:1.0 12572:1.0 12573:1.0 12574:1.0 
0.011787449581073473 4:1.0 15:1.0 21:12.0 22:12.0 23:1.0 35:5.0 42:1.0 87:10.0 88:1.0 89:10.0 90:2.0 92:1.0 107:2.0 154:1.0 169:1.0 172:12.0 173:1.0 189:2.0 194:1.0 207:2.0 244:10.0 245:1.0 246:1.0 275:1.0 277:1.0 799:1.0 804:1.0 1288:1.0 2773:1.0 2777:1.0 5146:6.0 5147:1.0 5206:4.0 5207:1.0 5208:1.0 5958:1.0 6161:1.0 6270:1.0 6420:1.0 6716:1.0 7035:1.0 7094:1.0 7223:1.0 8109:1.0 8513:1.0 8535:1.0 9696:1.0 10523:1.0 12767:1.0 12768:2.0 12769:2.0 12770:1.0 12771:1.0 12772:2.0 12773:1.0 12774:1.0 12775:1.0 12776:1.0 12777:1.0 12778:1.0 12779:1.0 12780:1.0 12781:1.0 12782:1.0 12783:1.0 12784:1.0 12785:1.0 12786:1.0 12787:1.0 12788:1.0 12789:1.0 12790:1.0 12791:1.0 12792:1.0 12793:1.0 12794:1.0 12795:1.0 12796:1.0 12797:1.0 12798:1.0 12799:1.0 12800:1.0 12801:1.0 12802:1.0 12803:1.0 12804:1.0 12805:1.0 12806:1.0 12807:1.0 12808:1.0 12809:1.0 12810:1.0 12811:1.0 12812:1.0 12813:1.0 12814:1.0 12815:1.0 12816:1.0 12817:1.0 12818:1.0 12819:1.0 12820:1.0 12821:1.0 12822:1.0 12823:1.0 12824:1.0 12825:1.0 12826:1.0 12827:1.0 12828:1.0 12829:1.0 12830:1.0 12831:1.0 12832:1.0 
0.022173657266078627 15:1.0 432:1.0 435:3.0 436:2.0 453:1.0 479:2.0 481:1.0 505:1.0 517:1.0 518:1.0 519:1.0 530:1.0 531:1.0 566:1.0 567:1.0 1648:1.0 3941:1.0 7004:1.0 7005:2.0 7035:1.0 7069:1.0 7336:1.0 7337:1.0 13094:1.0 13095:1.0 13096:1.0 13097:1.0 13098:1.0 13099:1.0 
0.00290890665740002 4:1.0 8:1.0 25:1.0 123:2.0 145:1.0 167:1.0 1879:1.0 13244:1.0 13245:3.0 13246:2.0 13247:1.0 13248:1.0 13249:1.0 13250:1.0 13251:1.0 13252:1.0 13253:1.0 13254:1.0 13255:1.0 13256:1.0 13257:2.0 13258:1.0 13259:1.0 13260:1.0 13261:1.0 13262:1.0 
0.009830895156022522 4:1.0 26:1.0 35:1.0 167:1.0 172:24.0 173:2.0 194:2.0 209:1.0 244:20.0 245:2.0 246:2.0 702:1.0 703:2.0 704:4.0 714:1.0 734:2.0 760:1.0 1288:1.0 1402:1.0 1580:5.0 1585:1.0 1607:4.0 2423:1.0 2442:1.0 2453:1.0 2468:1.0 2489:1.0 3824:2.0 4030:2.0 4388:1.0 6596:1.0 6599:1.0 6600:1.0 6605:1.0 6611:1.0 7478:1.0 10034:1.0 13564:1.0 13565:3.0 13566:2.0 13567:1.0 13568:1.0 13569:1.0 13570:1.0 13571:1.0 13572:1.0 13573:1.0 13574:1.0 13575:1.0 13576:1.0 13577:1.0 13578:1.0 13579:1.0 13580:1.0 13581:1.0 13582:1.0 13583:1.0 13584:1.0 13585:1.0 13586:1.0 13587:1.0 13588:1.0 13589:1.0 13590:1.0 13591:2.0 13592:1.0 13593:1.0 13594:1.0 13595:1.0 13596:1.0 13597:1.0 13598:1.0 13599:1.0 13600:1.0 13601:1.0 13602:1.0 13603:1.0 
0.004778806437296014 4:1.0 7:1.0 35:7.0 172:12.0 173:1.0 175:12.0 176:3.0 187:1.0 194:1.0 196:1.0 205:1.0 244:10.0 245:1.0 246:1.0 250:10.0 251:1.0 252:1.0 253:2.0 277:1.0 341:2.0 353:2.0 1237:2.0 1328:4.0 1340:2.0 1373:2.0 1401:1.0 1875:1.0 1880:1.0 1898:9.0 1901:1.0 1906:3.0 1926:5.0 2085:1.0 2176:2.0 2192:1.0 2244:1.0 2423:6.0 2427:2.0 2436:4.0 2508:1.0 2520:1.0 2531:1.0 2564:1.0 2627:2.0 2646:1.0 2809:1.0 2837:2.0 2839:1.0 3476:1.0 3949:1.0 4053:1.0 4069:1.0 5055:3.0 5070:2.0 5958:1.0 5959:1.0 5990:1.0 6043:1.0 6715:3.0 6729:1.0 6730:1.0 6736:1.0 6768:1.0 6782:1.0 6838:2.0 7010:2.0 7066:1.0 7067:1.0 7167:1.0 7326:1.0 7346:1.0 7619:3.0 7620:2.0 7637:2.0 7651:1.0 7798:2.0 7800:1.0 9122:1.0 10350:1.0 13676:1.0 13677:1.0 13678:3.0 13679:3.0 13680:1.0 13681:2.0 13682:1.0 13683:1.0 13684:3.0 13685:1.0 13686:2.0 13687:1.0 13688:1.0 13689:2.0 13690:1.0 13691:1.0 13692:1.0 13693:1.0 13694:1.0 13695:1.0 13696:1.0 13697:1.0 13698:1.0 13699:1.0 13700:1.0 13701:1.0 13702:1.0 13703:1.0 13704:1.0 13705:1.0 13706:1.0 13707:1.0 13708:1.0 13709:1.0 13710:1.0 13711:1.0 13712:1.0 13713:1.0 13714:1.0 13715:1.0 13716:1.0 13717:1.0 13718:1.0 13719:1.0 13720:1.0 13721:1.0 13722:1.0 13723:1.0 13724:1.0 13725:1.0 13726:1.0 13727:1.0 13728:1.0 13729:1.0 13730:1.0 13731:1.0 13732:1.0 13733:1.0 13734:1.0 13735:1.0 13736:1.0 13737:1.0 13738:1.0 13739:1.0 13740:1.0 13741:1.0 13742:1.0 13743:1.0 13744:1.0 13745:1.0 13746:1.0 13747:1.0 13748:1.0 13749:1.0 13750:1.0 13751:1.0 13752:1.0 13753:1.0 13754:1.0 13755:1.0 13756:1.0 13757:1.0 13758:1.0 13759:1.0 13760:1.0 13761:1.0 13762:1.0 13763:1.0 13764:1.0 13765:2.0 13766:1.0 13767:2.0 13768:1.0 13769:1.0 13770:1.0 13771:1.0 13772:1.0 13773:1.0 13774:1.0 13775:1.0 13776:1.0 13777:1.0 13778:1.0 13779:1.0 13780:1.0 13781:1.0 13782:1.0 13783:1.0 13784:1.0 13785:2.0 13786:1.0 13787:1.0 13788:1.0 13789:1.0 13790:1.0 13791:1.0 13792:1.0 13793:1.0 13794:1.0 13795:1.0 13796:1.0 13797:1.0 13798:1.0 13799:1.0 13800:1.0 13801:1.0 13802:1.0 13803:1.0 
0.0075038136285122585 4:2.0 8:1.0 25:1.0 32:1.0 167:1.0 684:1.0 2018:1.0 3604:1.0 3609:1.0 11432:1.0 11433:1.0 11442:1.0 11496:1.0 13564:1.0 13566:2.0 13570:1.0 13595:1.0 13615:1.0 13616:1.0 13650:1.0 13807:1.0 13835:1.0 13836:1.0 13837:1.0 13838:1.0 
0.006141963040634659 4:1.0 8:1.0 15:2.0 25:1.0 35:6.0 103:3.0 117:1.0 149:2.0 175:24.0 176:6.0 196:2.0 250:19.0 251:3.0 252:2.0 253:4.0 277:1.0 284:2.0 297:1.0 307:1.0 319:1.0 398:2.0 821:2.0 824:1.0 844:1.0 846:1.0 1332:1.0 1333:1.0 1334:1.0 1344:1.0 1348:2.0 1401:1.0 1402:2.0 1566:1.0 1756:3.0 1765:2.0 1942:1.0 2018:1.0 2068:1.0 2080:1.0 2098:1.0 2099:1.0 2121:1.0 2122:1.0 2176:1.0 2337:1.0 2366:1.0 2374:1.0 2423:3.0 2427:1.0 2436:2.0 2505:3.0 2506:1.0 2516:1.0 2541:2.0 2542:1.0 2627:1.0 2809:1.0 4369:1.0 4373:3.0 4374:2.0 4388:2.0 4440:1.0 4701:1.0 4793:1.0 5193:1.0 5487:1.0 5947:1.0 5948:1.0 5963:1.0 6027:1.0 6378:2.0 6385:2.0 6386:1.0 6596:1.0 6599:1.0 8280:1.0 8296:1.0 8334:2.0 8344:1.0 10197:1.0 10868:1.0 11231:1.0 11920:1.0 13401:2.0 13411:2.0 13680:1.0 13960:2.0 13961:1.0 13962:1.0 13963:2.0 13964:1.0 13965:5.0 13966:2.0 13967:2.0 13968:1.0 13969:1.0 13970:1.0 13971:1.0 13972:1.0 13973:1.0 13974:1.0 13975:1.0 13976:1.0 13977:1.0 13978:1.0 13979:1.0 13980:1.0 13981:1.0 13982:1.0 13983:1.0 13984:1.0 13985:1.0 13986:1.0 13987:1.0 13988:1.0 13989:1.0 13990:1.0 13991:1.0 13992:1.0 13993:1.0 13994:1.0 13995:1.0 13996:1.0 13997:1.0 13998:1.0 13999:1.0 14000:1.0 14001:1.0 14002:1.0 14003:1.0 14004:1.0 14005:1.0 14006:1.0 14007:1.0 14008:1.0 14009:1.0 14010:1.0 14011:1.0 14012:1.0 14013:1.0 14014:1.0 14015:1.0 14016:1.0 14017:1.0 14018:1.0 14019:1.0 14020:1.0 14021:1.0 14022:1.0 14023:1.0 14024:1.0 14025:1.0 14026:1.0 14027:1.0 14028:1.0 14029:1.0 14030:1.0 14031:4.0 14032:1.0 14033:2.0 14034:1.0 
4.3408822068460124E-4 4:3.0 10:2.0 15:2.0 21:12.0 22:12.0 23:1.0 35:3.0 42:1.0 69:1.0 87:10.0 88:1.0 89:9.0 90:2.0 91:1.0 92:1.0 172:36.0 173:27.0 189:1.0 191:1.0 194:2.0 244:29.0 245:4.0 246:5.0 450:4.0 803:1.0 814:22.0 821:2.0 824:1.0 844:1.0 846:1.0 868:2.0 869:1.0 956:1.0 998:2.0 1298:1.0 1303:1.0 1316:1.0 1402:1.0 1566:1.0 1902:1.0 1936:1.0 1949:1.0 2020:1.0 2031:1.0 2078:1.0 2115:1.0 2616:5.0 2639:1.0 2646:2.0 2714:4.0 2837:1.0 2839:1.0 2891:2.0 2892:2.0 2893:4.0 2894:2.0 2901:2.0 2902:2.0 2909:2.0 2910:2.0 2911:2.0 2921:1.0 2922:2.0 2923:1.0 2924:2.0 2936:1.0 2942:1.0 2943:1.0 2965:1.0 4369:1.0 4373:2.0 4374:1.0 4388:1.0 4440:1.0 4660:1.0 4737:2.0 4744:1.0 4753:1.0 4765:1.0 4766:1.0 5032:1.0 6378:1.0 6385:1.0 6497:1.0 6707:4.0 6723:2.0 6803:2.0 8334:1.0 13388:5.0 13401:1.0 13407:1.0 13408:4.0 13411:1.0 13568:1.0 13574:1.0 13602:1.0 13610:1.0 14056:1.0 14071:1.0 14077:1.0 14105:1.0 14106:5.0 14107:2.0 14108:1.0 14109:1.0 14110:1.0 14111:1.0 14112:1.0 14113:1.0 14114:1.0 14115:1.0 14116:1.0 14117:1.0 14118:1.0 14119:1.0 14120:1.0 14121:1.0 14122:1.0 14123:1.0 14124:1.0 14125:1.0 14126:1.0 14127:1.0 14128:1.0 14129:1.0 14130:1.0 14131:1.0 14132:1.0 14133:1.0 14134:1.0 14135:1.0 14136:1.0 14137:1.0 14138:1.0 14139:1.0 14140:1.0 14141:1.0 14142:1.0 14143:1.0 14144:1.0 14145:1.0 14146:1.0 14147:1.0 14148:1.0 14149:1.0 14150:1.0 14151:1.0 14152:1.0 14153:1.0 14154:4.0 14155:1.0 14156:1.0 14157:1.0 14158:1.0 14159:1.0 14160:1.0 14161:1.0 14162:1.0 14163:1.0 14164:1.0 14165:1.0 14166:3.0 14167:1.0 14168:1.0 14169:1.0 14170:1.0 14171:1.0 14172:1.0 14173:1.0 14174:1.0 
8.748415687220387E-5 4:3.0 21:12.0 22:12.0 23:1.0 26:1.0 35:3.0 42:1.0 87:9.0 88:2.0 89:9.0 90:2.0 91:1.0 92:1.0 172:12.0 173:1.0 175:24.0 176:6.0 189:1.0 194:1.0 196:2.0 207:1.0 244:10.0 245:1.0 246:1.0 250:20.0 251:2.0 252:3.0 253:3.0 339:5.0 350:1.0 363:1.0 383:4.0 398:3.0 438:3.0 484:1.0 590:1.0 601:1.0 662:2.0 702:1.0 703:2.0 704:4.0 714:2.0 734:1.0 735:2.0 868:2.0 870:1.0 956:1.0 998:2.0 1237:1.0 1348:3.0 1401:4.0 1402:2.0 1715:1.0 1756:2.0 1765:1.0 1875:1.0 1880:1.0 1901:2.0 2020:1.0 2031:1.0 2115:1.0 2176:1.0 2253:1.0 2423:3.0 2427:1.0 2436:2.0 2442:2.0 2781:1.0 2808:1.0 2809:1.0 2837:1.0 2839:1.0 3104:2.0 3132:1.0 3387:1.0 3580:1.0 3583:1.0 3592:1.0 3601:1.0 4030:1.0 4255:6.0 4271:1.0 4340:3.0 4341:2.0 4342:2.0 4388:2.0 4395:2.0 4462:2.0 4605:1.0 4957:2.0 4963:1.0 4984:1.0 5118:3.0 5119:1.0 5123:1.0 5129:1.0 5137:1.0 5138:1.0 5139:1.0 5149:2.0 5151:1.0 5158:2.0 5160:1.0 5163:2.0 5179:2.0 5183:1.0 5214:1.0 5223:1.0 5224:1.0 6394:2.0 6407:2.0 6420:1.0 6497:1.0 6596:1.0 6599:1.0 6600:1.0 8333:1.0 8442:2.0 8496:1.0 8497:2.0 8541:1.0 9291:1.0 9292:1.0 9323:1.0 9496:1.0 9669:1.0 9775:1.0 10922:1.0 12544:1.0 13122:2.0 13123:1.0 13171:1.0 13172:1.0 13365:2.0 13473:2.0 13474:1.0 13478:1.0 13479:1.0 13486:1.0 13487:1.0 13488:1.0 13567:2.0 13625:1.0 13690:1.0 13854:1.0 13878:2.0 13879:2.0 14208:1.0 14209:1.0 14210:1.0 14211:3.0 14212:1.0 14213:1.0 14214:1.0 14215:7.0 14216:5.0 14217:1.0 14218:1.0 14219:1.0 14220:1.0 14221:1.0 14222:1.0 14223:1.0 14224:1.0 14225:1.0 14226:1.0 14227:1.0 14228:1.0 14229:1.0 14230:1.0 14231:1.0 14232:1.0 14233:1.0 14234:1.0 14235:1.0 14236:1.0 14237:1.0 14238:1.0 14239:1.0 14240:1.0 14241:1.0 14242:1.0 14243:1.0 14244:1.0 14245:1.0 14246:1.0 14247:1.0 14248:1.0 14249:1.0 14250:2.0 14251:1.0 14252:1.0 14253:1.0 14254:1.0 14255:1.0 14256:1.0 14257:1.0 14258:1.0 14259:1.0 14260:1.0 14261:1.0 14262:1.0 14263:2.0 14264:2.0 14265:1.0 14266:1.0 14267:1.0 14268:1.0 14269:1.0 14270:1.0 14271:1.0 14272:1.0 14273:1.0 14274:1.0 14275:1.0 14276:1.0 14277:1.0 14278:1.0 14279:1.0 14280:1.0 14281:1.0 14282:1.0 14283:1.0 14284:1.0 14285:1.0 14286:1.0 14287:1.0 14288:1.0 14289:1.0 14290:1.0 14291:1.0 14292:1.0 14293:2.0 14294:1.0 14295:1.0 14296:1.0 14297:1.0 14298:1.0 14299:1.0 14300:1.0 14301:1.0 14302:1.0 14303:1.0 14304:2.0 14305:1.0 14306:1.0 14307:1.0 14308:1.0 14309:1.0 14310:1.0 14311:1.0 14312:5.0 14313:1.0 14314:4.0 14315:1.0 14316:1.0 14317:1.0 14318:1.0 14319:1.0 14320:1.0 14321:1.0 14322:1.0 14323:1.0 14324:1.0 14325:1.0 14326:1.0 14327:1.0 14328:1.0 14329:1.0 14330:1.0 
0.003612255368887119 4:1.0 10:1.0 175:12.0 176:3.0 196:1.0 250:10.0 251:2.0 252:1.0 253:1.0 403:1.0 445:1.0 458:1.0 1116:1.0 1445:1.0 1446:1.0 1448:1.0 1456:1.0 2310:5.0 2313:1.0 2327:4.0 4149:1.0 5289:1.0 8747:1.0 9168:4.0 11352:2.0 13490:3.0 14331:1.0 14332:1.0 14333:2.0 14334:1.0 14335:1.0 14336:1.0 14337:1.0 14338:1.0 14339:1.0 14340:1.0 14341:1.0 14342:1.0 14343:1.0 14344:1.0 14345:1.0 14346:1.0 14347:1.0 14348:1.0 14349:1.0 14350:1.0 14351:1.0 14352:1.0 14353:1.0 14354:1.0 14355:1.0 14356:1.0 14357:1.0 14358:1.0 14359:1.0 14360:1.0 14361:1.0 14362:1.0 14363:1.0 14364:1.0 14365:1.0 14366:1.0 14367:1.0 14368:1.0 14369:1.0 14370:1.0 14371:1.0 
0.001047699408609755 4:1.0 10:2.0 35:7.0 69:1.0 109:2.0 122:1.0 158:1.0 167:1.0 172:24.0 173:2.0 175:24.0 176:6.0 191:1.0 194:2.0 196:2.0 244:21.0 245:1.0 246:2.0 250:19.0 251:4.0 252:2.0 253:3.0 275:1.0 284:2.0 285:3.0 289:10.0 290:1.0 297:1.0 307:1.0 319:1.0 321:2.0 328:6.0 341:2.0 353:2.0 398:1.0 404:3.0 410:1.0 431:2.0 435:3.0 436:2.0 445:1.0 453:1.0 458:1.0 470:1.0 479:2.0 481:1.0 503:1.0 1098:1.0 1331:2.0 1348:1.0 1470:24.0 1471:2.0 1486:1.0 1540:21.0 1541:1.0 1542:2.0 1544:1.0 1545:1.0 1612:6.0 1620:2.0 1652:4.0 1727:1.0 1756:2.0 1765:1.0 1829:1.0 1836:1.0 1900:3.0 1929:2.0 2283:1.0 2441:3.0 2452:1.0 2491:2.0 2811:1.0 2812:1.0 2813:1.0 2825:1.0 2837:1.0 2839:1.0 2865:1.0 3238:1.0 3476:1.0 3777:1.0 3778:1.0 3781:1.0 3793:1.0 3799:1.0 3941:1.0 4737:2.0 4744:1.0 4753:1.0 4765:1.0 4766:1.0 4791:1.0 4803:1.0 5146:4.0 5206:3.0 5285:1.0 5529:2.0 5567:1.0 6596:2.0 6610:1.0 6663:1.0 7071:1.0 7178:1.0 7614:1.0 9077:1.0 9179:1.0 9619:1.0 9721:1.0 10170:3.0 10171:3.0 10174:1.0 10191:2.0 10194:2.0 10711:2.0 10716:2.0 10735:1.0 11104:2.0 11105:1.0 11108:1.0 11119:1.0 11141:1.0 11142:1.0 11143:1.0 11352:2.0 11384:1.0 11412:1.0 12088:4.0 12094:2.0 12148:2.0 12149:2.0 13321:1.0 13327:1.0 13328:1.0 14337:1.0 14359:1.0 14372:1.0 14373:1.0 14374:3.0 14375:3.0 14376:1.0 14377:1.0 14378:3.0 14379:1.0 14380:2.0 14381:1.0 14382:1.0 14383:1.0 14384:1.0 14385:1.0 14386:1.0 14387:1.0 14388:1.0 14389:1.0 14390:1.0 14391:1.0 14392:1.0 14393:1.0 14394:1.0 14395:1.0 14396:1.0 14397:1.0 14398:1.0 14399:1.0 14400:1.0 14401:1.0 14402:1.0 14403:1.0 14404:1.0 14405:1.0 14406:1.0 14407:1.0 14408:1.0 14409:1.0 14410:1.0 14411:1.0 14412:1.0 14413:1.0 14414:1.0 14415:2.0 14416:2.0 14417:1.0 14418:1.0 14419:1.0 14420:1.0 14421:1.0 14422:1.0 14423:1.0 14424:1.0 14425:1.0 14426:1.0 14427:1.0 14428:1.0 14429:1.0 14430:1.0 14431:1.0 14432:1.0 14433:1.0 14434:1.0 14435:1.0 14436:1.0 14437:1.0 14438:1.0 14439:1.0 14440:1.0 14441:1.0 14442:1.0 14443:1.0 14444:1.0 14445:1.0 14446:1.0 14447:1.0 14448:1.0 14449:1.0 14450:1.0 14451:1.0 14452:1.0 14453:1.0 14454:1.0 14455:1.0 14456:1.0 14457:1.0 14458:1.0 14459:1.0 14460:1.0 14461:1.0 14462:1.0 14463:1.0 14464:1.0 14465:1.0 14466:2.0 14467:1.0 14468:1.0 14469:1.0 14470:1.0 14471:1.0 14472:1.0 14473:1.0 14474:2.0 14475:1.0 14476:1.0 14477:1.0 14478:1.0 14479:1.0 14480:1.0 14481:1.0 14482:1.0 14483:1.0 14484:1.0 14485:1.0 14486:1.0 14487:1.0 14488:1.0 
0.0058157220155940536 35:1.0 167:1.0 1280:2.0 1401:1.0 2622:3.0 2728:2.0 2837:1.0 2839:1.0 3238:1.0 3320:1.0 3452:1.0 3455:1.0 3456:1.0 6039:1.0 12439:1.0 12450:1.0 14805:1.0 14819:1.0 14820:1.0 14823:1.0 14830:1.0 14833:1.0 14834:2.0 14835:2.0 14836:1.0 14837:1.0 14838:1.0 14839:1.0 14840:1.0 14841:1.0 14842:1.0 14843:1.0 14844:1.0 14845:1.0 14846:1.0 14847:1.0 14848:1.0 14849:1.0 14850:1.0 14851:1.0 14852:2.0 14853:1.0 14854:1.0 
0.0035160078219357567 4:1.0 10:25.0 29:1.0 69:24.0 209:1.0 670:1.0 672:1.0 1942:1.0 2068:1.0 2080:1.0 2122:1.0 2839:1.0 15174:1.0 15175:1.0 15176:1.0 15177:1.0 15178:1.0 15179:1.0 15180:1.0 15181:1.0 15182:1.0 15183:1.0 
0.0011288652041976965 4:2.0 8:1.0 25:1.0 44:1.0 123:2.0 145:1.0 173:1.0 275:1.0 289:4.0 290:1.0 328:2.0 329:1.0 340:3.0 386:2.0 503:1.0 1237:1.0 1239:1.0 1248:1.0 1795:1.0 1895:2.0 1921:1.0 2425:1.0 5795:1.0 5807:1.0 5826:1.0 7614:1.0 8286:1.0 8308:1.0 8513:5.0 12097:1.0 15595:1.0 15596:2.0 15597:1.0 15598:12.0 15599:1.0 15600:1.0 15601:1.0 15602:1.0 15603:1.0 15604:1.0 15605:1.0 15606:1.0 15607:1.0 15608:1.0 15609:1.0 15610:1.0 15611:1.0 15612:1.0 15613:1.0 15614:1.0 15615:1.0 15616:1.0 15617:1.0 15618:1.0 15619:1.0 15620:4.0 15621:1.0 15622:1.0 15623:1.0 15624:1.0 15625:1.0 15626:1.0 15627:11.0 
0.004152451089553277 4:1.0 35:2.0 123:2.0 172:24.0 173:2.0 194:2.0 244:20.0 245:2.0 246:2.0 339:5.0 350:1.0 363:1.0 383:4.0 438:3.0 757:3.0 766:1.0 777:1.0 793:2.0 1875:1.0 1880:1.0 2965:1.0 2966:1.0 3080:1.0 3104:1.0 3709:1.0 3731:1.0 4255:6.0 4271:1.0 4296:1.0 4340:3.0 4341:3.0 4342:2.0 4387:1.0 4930:1.0 4957:1.0 4984:1.0 5151:1.0 5163:1.0 7625:1.0 7626:4.0 7810:1.0 7811:1.0 10198:1.0 10203:1.0 10210:2.0 10924:1.0 11311:1.0 11333:1.0 11397:1.0 14038:1.0 15661:1.0 15662:1.0 15667:1.0 15712:1.0 15777:1.0 15778:1.0 15779:2.0 15780:1.0 15781:1.0 15782:1.0 15783:1.0 15784:1.0 15785:1.0 15786:1.0 15787:1.0 15788:1.0 15789:1.0 15790:1.0 15791:1.0 15792:1.0 15793:1.0 15794:1.0 15795:1.0 15796:1.0 15797:1.0 15798:1.0 15799:1.0 15800:1.0 15801:1.0 15802:1.0 15803:1.0 15804:1.0 15805:1.0 
0.006165919451288416 4:1.0 10:1.0 23:1.0 35:1.0 167:1.0 275:1.0 276:1.0 284:2.0 319:1.0 339:5.0 341:1.0 350:1.0 353:1.0 363:1.0 383:4.0 870:1.0 1116:1.0 1478:1.0 1942:1.0 1950:1.0 2068:1.0 2072:1.0 2080:1.0 2099:1.0 3799:1.0 4290:1.0 4335:1.0 4470:1.0 4664:1.0 4791:1.0 4803:1.0 8211:1.0 8953:1.0 10219:1.0 10226:1.0 11429:2.0 11439:1.0 11487:1.0 13051:1.0 13062:1.0 14464:1.0 15870:3.0 15871:1.0 15872:1.0 15873:1.0 15874:1.0 15875:1.0 15876:1.0 15877:1.0 15878:1.0 15879:1.0 15880:1.0 15881:1.0 15882:1.0 15883:1.0 15884:2.0 15885:1.0 15886:1.0 15887:1.0 15888:1.0 15889:1.0 15890:1.0 15891:1.0 
0.0019062260725329326 4:1.0 10:2.0 35:2.0 69:1.0 123:2.0 172:12.0 173:25.0 191:1.0 244:9.0 245:2.0 246:3.0 276:1.0 277:1.0 284:2.0 297:1.0 307:1.0 319:1.0 339:5.0 350:1.0 363:1.0 383:4.0 803:1.0 814:22.0 1332:1.0 1333:1.0 1334:1.0 1344:1.0 1381:1.0 1603:1.0 1898:2.0 1906:1.0 1926:1.0 2439:1.0 2440:1.0 2451:1.0 2487:1.0 4737:2.0 4744:1.0 4753:1.0 4765:1.0 4766:1.0 6713:1.0 6733:1.0 6842:1.0 8673:1.0 9167:1.0 9178:1.0 9199:1.0 15231:1.0 15912:1.0 15913:1.0 15929:1.0 15930:1.0 15931:1.0 15932:4.0 15933:5.0 15934:1.0 15935:1.0 15936:1.0 15937:1.0 15938:1.0 15939:1.0 15940:1.0 15941:1.0 15942:1.0 15943:1.0 15944:1.0 15945:1.0 15946:1.0 15947:1.0 15948:1.0 15949:1.0 15950:1.0 15951:1.0 15952:1.0 15953:1.0 15954:1.0 15955:1.0 15956:1.0 15957:1.0 15958:3.0 15959:1.0 15960:4.0 15961:1.0 15962:1.0 15963:1.0 15964:1.0 15965:1.0 
0.007476226243695073 10:2.0 69:1.0 103:3.0 117:1.0 123:2.0 149:2.0 175:12.0 176:27.0 250:10.0 251:1.0 252:25.0 253:2.0 435:3.0 436:2.0 453:1.0 479:2.0 481:1.0 521:1.0 702:1.0 703:1.0 704:2.0 714:1.0 734:1.0 735:1.0 1581:1.0 1673:1.0 2837:1.0 3941:1.0 5768:1.0 5771:1.0 6712:1.0 6732:1.0 8204:2.0 8212:1.0 8258:1.0 8273:1.0 8652:1.0 15597:8.0 15729:1.0 15732:1.0 15748:7.0 15749:1.0 16178:2.0 16179:1.0 16180:1.0 16181:1.0 16182:1.0 16183:1.0 16184:1.0 16185:1.0 16186:1.0 16187:1.0 16188:1.0 16189:1.0 16190:1.0 16191:1.0 16192:1.0 16193:1.0 16194:1.0 16195:1.0 16196:1.0 16197:1.0 16198:1.0 16199:1.0 16200:1.0 16201:1.0 16202:1.0 16203:1.0 16204:1.0 16205:1.0 16206:1.0 16207:1.0 
0.004487840756432568 4:1.0 8:1.0 10:1.0 25:2.0 26:1.0 27:1.0 35:10.0 44:1.0 64:1.0 103:3.0 107:3.0 117:1.0 120:1.0 149:2.0 154:2.0 172:24.0 173:2.0 175:12.0 176:27.0 194:2.0 209:1.0 244:20.0 245:2.0 246:2.0 250:9.0 251:3.0 252:23.0 253:3.0 276:1.0 277:1.0 284:4.0 286:24.0 287:2.0 297:2.0 299:1.0 307:2.0 319:2.0 323:21.0 324:2.0 336:1.0 341:1.0 343:2.0 353:1.0 355:1.0 390:1.0 438:6.0 484:1.0 757:3.0 766:1.0 793:2.0 819:2.0 822:1.0 838:1.0 869:1.0 870:2.0 980:1.0 1000:1.0 1116:1.0 1467:6.0 1484:3.0 1533:3.0 1534:5.0 1580:1.0 1581:1.0 1829:1.0 1895:2.0 1921:1.0 2179:1.0 2195:1.0 2218:1.0 2255:1.0 2256:1.0 2257:1.0 2332:3.0 2333:2.0 2341:1.0 2379:1.0 2380:1.0 2381:1.0 2382:1.0 2421:2.0 2425:1.0 2432:1.0 2442:2.0 2489:1.0 2780:1.0 2781:1.0 2791:1.0 2807:1.0 2808:1.0 3637:2.0 3690:1.0 3929:1.0 3943:1.0 4076:1.0 4371:2.0 4384:1.0 4388:2.0 4434:1.0 4667:1.0 5146:4.0 5206:3.0 5285:1.0 5312:1.0 5363:1.0 5544:1.0 5553:1.0 5768:2.0 5771:2.0 6033:1.0 6373:1.0 6374:3.0 6375:3.0 6386:1.0 6420:1.0 6587:1.0 6781:1.0 6978:1.0 6979:1.0 6980:2.0 6981:2.0 6982:1.0 6983:1.0 7004:1.0 7005:2.0 7041:1.0 7042:1.0 7069:1.0 7264:1.0 7336:1.0 7379:1.0 7511:2.0 7521:1.0 7569:1.0 7914:1.0 8087:1.0 8255:1.0 8362:1.0 8363:1.0 8364:1.0 9030:2.0 9077:1.0 9124:1.0 9126:1.0 9286:1.0 9749:1.0 9971:1.0 9984:1.0 11026:2.0 11042:1.0 11043:1.0 12683:1.0 14270:1.0 15154:1.0 15156:1.0 15306:1.0 16221:2.0 16222:1.0 16223:2.0 16224:1.0 16225:1.0 16226:1.0 16227:1.0 16228:2.0 16229:1.0 16230:3.0 16231:2.0 16232:1.0 16233:1.0 16234:1.0 16235:1.0 16236:1.0 16237:1.0 16238:1.0 16239:1.0 16240:1.0 16241:1.0 16242:1.0 16243:1.0 16244:1.0 16245:1.0 16246:1.0 16247:1.0 16248:2.0 16249:1.0 16250:1.0 16251:1.0 16252:1.0 16253:1.0 16254:2.0 16255:1.0 16256:1.0 16257:1.0 16258:1.0 16259:1.0 16260:1.0 16261:1.0 16262:1.0 16263:1.0 16264:1.0 16265:1.0 16266:1.0 16267:1.0 16268:1.0 16269:1.0 16270:1.0 16271:1.0 16272:1.0 16273:1.0 16274:1.0 16275:1.0 16276:1.0 16277:1.0 16278:1.0 16279:1.0 16280:1.0 16281:1.0 16282:1.0 16283:1.0 16284:1.0 16285:1.0 16286:1.0 16287:1.0 16288:1.0 16289:1.0 16290:1.0 16291:1.0 16292:1.0 16293:1.0 16294:1.0 16295:1.0 16296:1.0 16297:1.0 16298:1.0 16299:1.0 16300:1.0 16301:1.0 16302:1.0 16303:1.0 16304:1.0 16305:1.0 16306:1.0 16307:3.0 16308:1.0 16309:1.0 16310:1.0 16311:1.0 16312:1.0 16313:1.0 16314:1.0 16315:1.0 16316:1.0 16317:1.0 16318:1.0 16319:1.0 16320:1.0 16321:1.0 16322:1.0 16323:1.0 16324:1.0 16325:1.0 16326:1.0 16327:1.0 16328:1.0 16329:1.0 16330:1.0 16331:1.0 16332:1.0 16333:1.0 16334:1.0 16335:1.0 16336:1.0 16337:1.0 16338:1.0 16339:1.0 16340:1.0 16341:1.0 16342:1.0 16343:1.0 16344:1.0 
0.0035806374794604074 4:1.0 8:1.0 10:1.0 25:1.0 35:3.0 167:1.0 172:12.0 173:1.0 175:12.0 176:3.0 194:1.0 196:1.0 244:10.0 245:1.0 246:1.0 250:10.0 251:2.0 252:1.0 253:1.0 275:1.0 341:2.0 353:2.0 404:3.0 410:1.0 431:2.0 517:3.0 518:2.0 519:2.0 566:2.0 1116:1.0 1136:1.0 1478:1.0 1610:2.0 1611:2.0 1618:1.0 1642:1.0 1646:1.0 1647:1.0 1650:1.0 2018:1.0 3736:1.0 3737:1.0 4037:3.0 4041:1.0 4064:2.0 4791:2.0 4803:2.0 4821:1.0 4847:1.0 5328:1.0 5373:1.0 5910:1.0 6033:1.0 6129:1.0 6712:1.0 6732:1.0 7460:1.0 7665:1.0 10522:1.0 10525:1.0 11183:1.0 11186:1.0 11197:1.0 11208:1.0 15361:1.0 15894:3.0 15923:2.0 16345:5.0 16346:3.0 16347:2.0 16348:1.0 16349:1.0 16350:1.0 16351:1.0 16352:1.0 16353:1.0 16354:1.0 16355:1.0 16356:1.0 16357:1.0 16358:1.0 16359:1.0 16360:1.0 16361:1.0 16362:1.0 16363:1.0 16364:1.0 16365:1.0 16366:1.0 16367:1.0 16368:1.0 16369:1.0 16370:1.0 16371:1.0 16372:1.0 16373:1.0 16374:1.0 16375:1.0 16376:1.0 16377:1.0 16378:4.0 16379:1.0 16380:1.0 16381:2.0 16382:1.0 16383:1.0 16384:1.0 16385:1.0 16386:1.0 16387:1.0 16388:1.0 16389:1.0 16390:1.0 16391:1.0 16392:1.0 16393:1.0 16394:1.0 
0.0020826174615161124 4:1.0 21:12.0 22:12.0 23:25.0 35:1.0 87:10.0 88:2.0 89:10.0 90:1.0 91:1.0 103:3.0 117:1.0 149:2.0 167:1.0 172:48.0 173:4.0 194:4.0 244:41.0 245:3.0 246:4.0 870:1.0 1237:1.0 1238:1.0 1247:1.0 1332:1.0 1333:1.0 1334:1.0 1344:1.0 1402:1.0 1875:1.0 1880:1.0 2176:1.0 2365:1.0 2374:1.0 2622:3.0 2728:2.0 2837:1.0 2839:1.0 2885:2.0 2891:1.0 2892:1.0 2893:2.0 2894:3.0 2895:1.0 2901:1.0 2902:3.0 2922:1.0 2942:1.0 3111:3.0 3112:3.0 3113:1.0 3135:1.0 3136:1.0 3228:23.0 3229:1.0 3232:1.0 3233:1.0 3234:1.0 3235:1.0 3238:1.0 3429:1.0 3456:1.0 4382:1.0 4390:2.0 4963:1.0 5594:1.0 5603:1.0 5617:1.0 5625:1.0 5697:1.0 5713:1.0 6032:1.0 6038:1.0 6039:1.0 6053:1.0 6054:1.0 6071:1.0 6072:1.0 6373:1.0 6374:1.0 6375:1.0 6409:2.0 6437:1.0 6807:1.0 8334:1.0 13118:1.0 13126:1.0 13159:1.0 14040:1.0 14071:1.0 14688:2.0 14689:2.0 14693:1.0 14694:2.0 14719:1.0 14744:1.0 15673:1.0 16230:1.0 16231:1.0 16254:1.0 16307:1.0 16418:1.0 16419:1.0 16420:2.0 16421:1.0 16422:1.0 16423:1.0 16424:1.0 16425:1.0 16426:1.0 16427:1.0 16428:1.0 16429:1.0 16430:1.0 16431:1.0 16432:1.0 16433:1.0 16434:3.0 16435:1.0 16436:1.0 16437:1.0 16438:1.0 16439:1.0 16440:1.0 16441:1.0 16442:1.0 16443:1.0 16444:1.0 16445:1.0 16446:1.0 16447:1.0 16448:1.0 16449:1.0 16450:1.0 16451:1.0 16452:1.0 16453:1.0 16454:1.0 16455:1.0 16456:1.0 16457:1.0 16458:1.0 16459:1.0 16460:1.0 16461:1.0 16462:1.0 16463:1.0 16464:1.0 16465:1.0 16466:1.0 16467:1.0 16468:1.0 16469:1.0 16470:1.0 16471:3.0 16472:1.0 16473:1.0 16474:1.0 16475:1.0 16476:1.0 16477:1.0 16478:1.0 16479:1.0 16480:1.0 16481:1.0 16482:1.0 16483:1.0 16484:1.0 16485:1.0 16486:1.0 16487:1.0 16488:1.0 16489:1.0 16490:1.0 
3.9212210041876495E-4 4:5.0 21:48.0 22:48.0 23:4.0 35:7.0 42:4.0 87:41.0 88:7.0 89:37.0 90:4.0 91:3.0 92:4.0 172:60.0 173:6.0 189:1.0 194:5.0 207:1.0 244:52.0 245:5.0 246:4.0 289:3.0 328:2.0 398:1.0 438:2.0 590:1.0 601:1.0 1237:5.0 1238:1.0 1239:1.0 1247:1.0 1288:1.0 1348:1.0 1401:1.0 1402:1.0 1476:1.0 1613:3.0 1654:2.0 1760:1.0 1895:2.0 1921:1.0 2332:2.0 2382:1.0 2417:1.0 2425:1.0 2509:2.0 2652:1.0 2894:1.0 2902:1.0 2965:3.0 2967:2.0 2968:2.0 2969:1.0 2995:1.0 3083:1.0 3097:1.0 3104:3.0 3105:5.0 3126:1.0 3133:1.0 3191:1.0 3213:2.0 3240:4.0 3249:2.0 3304:1.0 3305:1.0 3606:12.0 3607:18.0 3608:4.0 3611:2.0 3616:1.0 3626:5.0 3627:3.0 3628:10.0 3629:1.0 3631:3.0 3632:6.0 3824:2.0 4251:2.0 4266:1.0 4282:1.0 4323:1.0 4325:1.0 4390:1.0 4909:1.0 5161:1.0 5446:1.0 5478:1.0 5627:1.0 5665:1.0 5719:1.0 5720:1.0 5795:1.0 5807:1.0 5826:1.0 6341:3.0 7044:1.0 7099:1.0 7181:1.0 7411:2.0 9991:1.0 10922:1.0 11300:1.0 11335:1.0 12088:2.0 12094:1.0 12149:1.0 13572:1.0 13598:1.0 13610:1.0 13658:2.0 14071:1.0 14226:1.0 14487:1.0 14688:2.0 14689:2.0 14694:2.0 14719:2.0 15672:1.0 16434:1.0 16471:1.0 16500:1.0 16501:2.0 16502:1.0 16503:12.0 16504:4.0 16505:2.0 16506:3.0 16507:3.0 16508:3.0 16509:1.0 16510:2.0 16511:2.0 16512:2.0 16513:2.0 16514:2.0 16515:3.0 16516:2.0 16517:2.0 16518:2.0 16519:2.0 16520:5.0 16521:1.0 16522:1.0 16523:2.0 16524:1.0 16525:1.0 16526:1.0 16527:1.0 16528:1.0 16529:1.0 16530:1.0 16531:1.0 16532:1.0 16533:1.0 16534:1.0 16535:1.0 16536:2.0 16537:3.0 16538:1.0 16539:1.0 16540:1.0 16541:1.0 16542:1.0 16543:1.0 16544:1.0 16545:1.0 16546:1.0 16547:1.0 16548:1.0 16549:1.0 16550:1.0 16551:1.0 16552:1.0 16553:1.0 16554:1.0 16555:1.0 16556:1.0 16557:1.0 16558:1.0 16559:1.0 16560:1.0 16561:1.0 16562:3.0 16563:1.0 16564:1.0 16565:1.0 16566:1.0 16567:1.0 16568:1.0 16569:1.0 16570:1.0 16571:1.0 16572:1.0 16573:1.0 16574:1.0 16575:1.0 16576:1.0 16577:1.0 16578:1.0 16579:1.0 16580:1.0 16581:1.0 16582:1.0 16583:1.0 16584:1.0 16585:1.0 16586:1.0 16587:1.0 16588:1.0 16589:1.0 16590:1.0 16591:1.0 16592:1.0 16593:1.0 16594:2.0 16595:1.0 16596:1.0 16597:1.0 16598:1.0 16599:1.0 16600:1.0 16601:1.0 16602:1.0 16603:1.0 16604:1.0 16605:1.0 16606:1.0 16607:1.0 16608:1.0 16609:1.0 16610:1.0 16611:1.0 16612:1.0 16613:1.0 16614:1.0 16615:1.0 16616:1.0 16617:1.0 16618:1.0 16619:1.0 16620:1.0 16621:1.0 16622:1.0 16623:1.0 16624:1.0 16625:1.0 16626:1.0 16627:1.0 16628:1.0 16629:1.0 16630:1.0 16631:1.0 16632:1.0 16633:2.0 16634:10.0 16635:1.0 16636:1.0 16637:3.0 16638:1.0 16639:1.0 16640:1.0 16641:1.0 16642:1.0 16643:3.0 16644:1.0 16645:1.0 16646:1.0 16647:1.0 16648:1.0 16649:1.0 16650:1.0 16651:1.0 16652:1.0 16653:1.0 16654:1.0 16655:1.0 16656:2.0 16657:1.0 16658:2.0 16659:1.0 16660:2.0 16661:1.0 16662:1.0 16663:1.0 16664:1.0 16665:1.0 16666:1.0 16667:1.0 16668:1.0 16669:1.0 16670:1.0 16671:1.0 16672:1.0 16673:1.0 16674:1.0 16675:1.0 16676:1.0 16677:1.0 16678:1.0 16679:1.0 16680:1.0 16681:1.0 16682:1.0 16683:1.0 16684:1.0 16685:1.0 16686:1.0 16687:1.0 16688:1.0 16689:1.0 16690:1.0 16691:1.0 16692:1.0 16693:1.0 16694:1.0 16695:1.0 16696:1.0 16697:4.0 16698:1.0 16699:1.0 16700:1.0 16701:1.0 16702:1.0 
0.018935170765646218 4:1.0 35:1.0 341:2.0 353:1.0 925:1.0 1447:1.0 4207:1.0 7095:1.0 8961:1.0 16936:1.0 16937:1.0 16938:1.0 16939:1.0 16940:1.0 16941:1.0 16942:1.0 16943:1.0 
0.016226555089139092 4:1.0 103:3.0 117:1.0 149:2.0 800:1.0 805:1.0 6373:1.0 6374:1.0 6375:1.0 6393:1.0 16230:1.0 16231:1.0 16254:1.0 16295:1.0 16977:1.0 17040:1.0 17171:1.0 17172:1.0 17173:1.0 17174:1.0 17175:1.0 17176:1.0 
0.008566049783732363 4:1.0 289:4.0 290:1.0 328:2.0 329:1.0 503:1.0 1897:1.0 2283:1.0 5152:3.0 5227:2.0 12855:1.0 12858:1.0 12868:1.0 17177:1.0 17178:1.0 17179:1.0 17180:1.0 17181:1.0 17182:1.0 
0.01988074159753562 4:3.0 7:1.0 8:1.0 15:1.0 25:1.0 32:2.0 35:2.0 167:1.0 175:12.0 176:3.0 196:1.0 250:10.0 251:1.0 252:2.0 253:1.0 662:1.0 684:2.0 703:1.0 704:2.0 735:1.0 760:1.0 1237:1.0 1898:2.0 1906:1.0 1926:1.0 2646:1.0 3104:1.0 4030:1.0 4387:2.0 4662:1.0 4688:1.0 4957:1.0 5163:1.0 5223:1.0 5224:1.0 5274:1.0 5294:1.0 5962:1.0 5997:1.0 6264:1.0 6394:1.0 6407:1.0 6420:1.0 6497:1.0 6504:1.0 6575:1.0 6583:2.0 6707:2.0 6723:1.0 6803:1.0 6842:1.0 6860:1.0 7561:1.0 7723:1.0 7724:1.0 7817:1.0 7904:1.0 8919:1.0 8920:1.0 13365:1.0 13380:1.0 13878:1.0 14055:1.0 17250:2.0 17251:1.0 17252:1.0 17253:1.0 17254:1.0 17255:1.0 17256:1.0 17257:1.0 17258:1.0 17259:1.0 17260:1.0 17261:1.0 17262:1.0 17263:1.0 17264:1.0 17265:1.0 17266:1.0 17267:1.0 17268:1.0 17269:1.0 17270:1.0 17271:1.0 17272:1.0 17273:1.0 17274:1.0 17275:1.0 17276:1.0 17277:1.0 
8.898977774839246E-4 4:1.0 10:1.0 175:12.0 176:3.0 196:1.0 250:10.0 251:2.0 252:1.0 253:1.0 404:3.0 410:1.0 418:1.0 431:2.0 514:2.0 528:1.0 562:1.0 875:3.0 893:1.0 972:2.0 1116:1.0 1898:2.0 1906:1.0 1926:1.0 4788:1.0 4789:1.0 4799:1.0 4837:1.0 5768:1.0 6842:1.0 6860:1.0 8510:1.0 8652:1.0 8867:1.0 9837:1.0 13752:1.0 17087:1.0 17303:6.0 17304:3.0 17307:1.0 17334:1.0 17335:1.0 17336:1.0 17337:5.0 17418:12.0 17419:1.0 17420:2.0 17421:1.0 17422:1.0 17423:1.0 17424:1.0 17425:1.0 17426:1.0 17427:1.0 17428:1.0 17429:1.0 17430:1.0 17431:1.0 17432:1.0 17433:1.0 17434:1.0 17435:1.0 17436:1.0 17437:1.0 17438:1.0 17439:1.0 17440:11.0 17441:1.0 17442:1.0 17443:1.0 17444:1.0 17445:1.0 17446:1.0 
0.007315898014657166 4:1.0 103:3.0 117:1.0 149:2.0 174:6.0 195:1.0 248:5.0 1875:1.0 1880:1.0 1901:3.0 2194:1.0 2253:2.0 13120:1.0 13128:1.0 17454:1.0 17455:1.0 17456:3.0 17457:1.0 17458:1.0 17459:1.0 17460:1.0 17461:1.0 17462:1.0 17463:1.0 17464:1.0 17465:1.0 17466:1.0 17467:1.0 17468:1.0 17469:1.0 17470:1.0 17471:1.0 17472:1.0 17473:1.0 17474:1.0 17475:2.0 17476:1.0 17477:1.0 
0.014097798047015015 4:1.0 7:1.0 35:3.0 189:1.0 207:1.0 1474:2.0 1898:2.0 1906:1.0 1926:1.0 2646:1.0 4668:1.0 6867:1.0 9404:1.0 12580:1.0 12773:1.0 12829:1.0 15193:2.0 15233:1.0 15240:1.0 16409:1.0 17327:1.0 17539:1.0 17540:1.0 17541:2.0 17542:1.0 17543:2.0 17544:1.0 17545:1.0 17546:1.0 17547:1.0 17548:1.0 17549:1.0 17550:1.0 17551:1.0 17552:1.0 17553:1.0 17554:1.0 17555:1.0 17556:1.0 17557:1.0 17558:1.0 17559:1.0 17560:1.0 17561:1.0 17562:1.0 17563:1.0 17564:1.0 17565:1.0 17566:1.0 17567:1.0 17568:1.0 17569:1.0 17570:1.0 17571:1.0 17572:1.0 17573:1.0 17574:1.0 
0.008034134007816373 4:1.0 35:2.0 2817:2.0 6998:12.0 7316:11.0 9617:2.0 9620:1.0 9624:1.0 9627:1.0 15099:5.0 15128:4.0 16419:2.0 17609:1.0 17619:1.0 17620:1.0 17638:1.0 17660:1.0 17691:1.0 17692:1.0 17693:1.0 17694:1.0 17695:1.0 17696:1.0 17697:1.0 17698:1.0 17699:1.0 17700:1.0 17701:1.0 17702:1.0 17703:1.0 17704:1.0 17705:1.0 17706:1.0 17707:1.0 
0.003088151995289782 4:1.0 35:1.0 341:2.0 353:1.0 925:1.0 1447:1.0 4207:1.0 7095:1.0 8961:1.0 16936:1.0 16937:1.0 16943:1.0 18048:1.0 18049:1.0 18050:1.0 18051:1.0 18052:1.0 
0.010721583829388495 4:1.0 32:1.0 169:1.0 172:12.0 173:1.0 190:1.0 194:1.0 244:11.0 245:1.0 870:3.0 1402:1.0 1447:1.0 1580:5.0 1585:1.0 1607:4.0 2179:1.0 2195:1.0 2218:1.0 2256:1.0 2468:1.0 2489:1.0 2837:1.0 2839:1.0 3104:1.0 3238:1.0 3999:1.0 4409:1.0 4470:1.0 4957:1.0 5163:1.0 5223:1.0 7095:1.0 7478:1.0 13877:1.0 13908:1.0 17250:2.0 17254:1.0 17272:1.0 18097:1.0 18098:1.0 18099:1.0 18100:1.0 18101:1.0 18102:1.0 18103:1.0 18104:1.0 18105:1.0 18106:1.0 18107:1.0 18108:1.0 
0.02718483188369231 9:1.0 18:2.0 82:1.0 167:1.0 432:1.0 505:1.0 517:1.0 518:1.0 519:1.0 530:1.0 531:1.0 1237:1.0 1643:1.0 15746:1.0 17250:1.0 18252:1.0 18253:1.0 18254:1.0 18255:1.0 18256:1.0 18257:1.0 18258:1.0 18259:1.0 
0.004593206637280353 4:1.0 175:12.0 176:3.0 196:1.0 250:10.0 251:1.0 252:1.0 253:2.0 593:1.0 595:3.0 5252:2.0 6447:5.0 6449:1.0 6457:4.0 7866:1.0 7895:1.0 16092:3.0 16136:2.0 18182:1.0 18265:1.0 18266:1.0 18267:1.0 18268:1.0 18269:1.0 18270:1.0 18271:1.0 18272:1.0 18273:1.0 18274:1.0 18275:1.0 18276:1.0 18277:1.0 
0.00828342786819336 4:1.0 35:1.0 103:3.0 117:1.0 149:2.0 167:1.0 289:4.0 290:1.0 328:3.0 329:1.0 702:1.0 2277:1.0 2278:2.0 2284:1.0 2307:1.0 9978:1.0 9986:1.0 12097:1.0 17040:1.0 18293:1.0 18295:1.0 18298:1.0 18352:1.0 18353:1.0 18354:1.0 18355:1.0 18356:1.0 18357:1.0 18358:1.0 18359:1.0 18360:1.0 18361:1.0 18362:1.0 18363:1.0 18364:1.0 18365:1.0 
